<?xml version="1.0"?>
<opencv_storage>
<opencv_ml_svm>
  <format>3</format>
  <svmType>C_SVC</svmType>
  <kernel>
    <type>RBF</type>
    <gamma>3.3750000000000002e-02</gamma></kernel>
  <C>1.2500000000000000e+01</C>
  <term_criteria><iterations>1000</iterations></term_criteria>
  <var_count>20</var_count>
  <class_count>5</class_count>
  <class_labels type_id="opencv-matrix">
    <rows>5</rows>
    <cols>1</cols>
    <dt>i</dt>
    <data>
      0 1 2 3 4</data></class_labels>
  <sv_total>778</sv_total>
  <support_vectors>
    <_>
      0. 0. 0. 0. 0. 0. 0. 0. 0. 1. 0. 0. 0. 0. 0. 1. 0. 2. 0. 1.</_>
    <_>
      0. 0. 0. 0. 0. 0. 0. 0. 0. 2. 0. 0. 0. 0. 0. 1. 0. 1. 0. 1.</_>
    <_>
      0. 0. 0. 0. 0. 0. 0. 0. 0. 2. 0. 0. 0. 0. 0. 2. 0. 0. 0. 2.</_>
    <_>
      0. 0. 0. 0. 0. 0. 0. 0. 0. 2. 0. 0. 0. 1. 0. 2. 0. 0. 0. 1.</_>
    <_>
      0. 0. 0. 0. 0. 0. 0. 0. 0. 2. 0. 0. 0. 0. 0. 3. 0. 0. 0. 0.</_>
    <_>
      0. 0. 0. 0. 0. 0. 0. 0. 0. 3. 0. 0. 0. 1. 0. 1. 0. 0. 0. 0.</_>
    <_>
      0. 0. 0. 0. 0. 0. 0. 0. 0. 2. 0. 0. 0. 1. 0. 1. 0. 0. 0. 3.</_>
    <_>
      0. 0. 0. 0. 0. 0. 0. 0. 0. 2. 0. 0. 0. 1. 0. 1. 0. 2. 0. 0.</_>
    <_>
      0. 0. 0. 0. 0. 0. 0. 1. 0. 1. 0. 0. 0. 2. 0. 1. 0. 1. 0. 0.</_>
    <_>
      0. 0. 0. 0. 0. 0. 0. 1. 0. 1. 0. 0. 0. 2. 0. 1. 0. 1. 0. 1.</_>
    <_>
      0. 0. 0. 0. 0. 0. 0. 1. 0. 1. 0. 0. 0. 2. 0. 2. 0. 0. 0. 0.</_>
    <_>
      0. 0. 0. 0. 0. 0. 1. 2. 0. 0. 0. 0. 0. 1. 0. 3. 0. 0. 0. 0.</_>
    <_>
      0. 0. 0. 0. 0. 0. 0. 2. 0. 0. 0. 0. 0. 1. 0. 2. 0. 0. 0. 1.</_>
    <_>
      0. 0. 0. 0. 0. 0. 2. 2. 0. 0. 0. 0. 0. 1. 0. 2. 0. 0. 0. 0.</_>
    <_>
      0. 0. 0. 0. 0. 0. 1. 2. 0. 0. 0. 0. 0. 0. 0. 3. 0. 0. 0. 0.</_>
    <_>
      0. 0. 0. 0. 0. 0. 0. 2. 0. 0. 0. 0. 0. 1. 0. 1. 0. 0. 0. 0.</_>
    <_>
      0. 0. 0. 0. 0. 0. 0. 2. 0. 0. 0. 0. 0. 1. 0. 1. 0. 0. 0. 0.</_>
    <_>
      0. 0. 0. 0. 0. 1. 0. 1. 0. 0. 0. 0. 0. 1. 0. 1. 0. 0. 0. 0.</_>
    <_>
      0. 0. 0. 0. 1. 1. 0. 0. 0. 0. 0. 1. 0. 2. 0. 0. 0. 0. 1. 0.</_>
    <_>
      0. 0. 0. 0. 1. 1. 0. 0. 0. 1. 0. 1. 0. 0. 0. 0. 0. 0. 0. 0.</_>
    <_>
      0. 0. 0. 0. 1. 1. 0. 0. 2. 0. 0. 1. 0. 0. 0. 0. 0. 0. 0. 0.</_>
    <_>
      0. 0. 1. 0. 0. 1. 1. 0. 1. 0. 0. 0. 0. 0. 0. 0. 0. 0. 0. 0.</_>
    <_>
      0. 0. 1. 0. 0. 1. 0. 0. 1. 0. 0. 0. 0. 0. 0. 0. 0. 0. 0. 0.</_>
    <_>
      0. 0. 1. 0. 1. 1. 0. 0. 1. 0. 0. 0. 0. 0. 0. 0. 0. 0. 0. 0.</_>
    <_>
      0. 0. 1. 0. 0. 1. 1. 0. 1. 0. 0. 0. 0. 0. 0. 0. 0. 0. 0. 0.</_>
    <_>
      1. 0. 0. 0. 0. 1. 1. 0. 1. 0. 0. 0. 0. 0. 0. 0. 0. 0. 0. 0.</_>
    <_>
      1. 0. 0. 0. 1. 1. 0. 0. 1. 0. 0. 0. 0. 0. 0. 0. 0. 0. 0. 0.</_>
    <_>
      1. 0. 0. 1. 1. 0. 0. 0. 1. 0. 0. 0. 0. 0. 0. 0. 0. 0. 0. 0.</_>
    <_>
      0. 0. 0. 1. 0. 0. 1. 0. 2. 0. 0. 0. 0. 0. 0. 0. 0. 0. 0. 0.</_>
    <_>
      0. 0. 0. 1. 0. 0. 0. 0. 2. 0. 0. 0. 0. 0. 0. 0. 0. 0. 0. 0.</_>
    <_>
      1. 0. 0. 0. 0. 1. 0. 0. 2. 0. 0. 0. 0. 0. 0. 0. 0. 0. 0. 0.</_>
    <_>
      1. 0. 0. 0. 0. 1. 0. 0. 0. 0. 0. 0. 0. 0. 0. 0. 0. 0. 0. 0.</_>
    <_>
      0. 0. 2. 0. 2. 0. 0. 0. 0. 0. 0. 0. 0. 0. 0. 0. 0. 0. 0. 0.</_>
    <_>
      0. 0. 1. 0. 3. 0. 2. 0. 0. 0. 0. 0. 0. 0. 0. 0. 0. 0. 0. 0.</_>
    <_>
      0. 0. 1. 0. 2. 0. 2. 0. 0. 0. 0. 0. 0. 0. 0. 0. 0. 0. 0. 0.</_>
    <_>
      0. 0. 1. 0. 3. 0. 1. 0. 0. 0. 0. 0. 0. 0. 0. 0. 0. 0. 0. 0.</_>
    <_>
      0. 0. 0. 0. 4. 0. 1. 0. 0. 0. 0. 0. 0. 0. 0. 0. 0. 0. 0. 0.</_>
    <_>
      0. 0. 0. 0. 5. 0. 0. 2. 0. 0. 0. 0. 0. 0. 0. 0. 0. 0. 0. 0.</_>
    <_>
      0. 0. 0. 0. 4. 0. 1. 1. 0. 0. 0. 0. 0. 0. 0. 0. 0. 0. 0. 0.</_>
    <_>
      0. 0. 0. 0. 3. 0. 0. 1. 0. 0. 0. 0. 0. 0. 0. 0. 0. 0. 0. 0.</_>
    <_>
      0. 0. 0. 0. 3. 0. 0. 1. 0. 0. 0. 0. 0. 0. 0. 0. 0. 0. 0. 0.</_>
    <_>
      0. 0. 0. 0. 3. 0. 0. 2. 0. 0. 0. 0. 0. 0. 0. 0. 0. 0. 0. 0.</_>
    <_>
      0. 0. 0. 0. 4. 0. 0. 1. 0. 0. 0. 0. 0. 0. 0. 0. 0. 0. 0. 0.</_>
    <_>
      0. 0. 0. 0. 3. 0. 1. 1. 0. 0. 0. 0. 0. 0. 0. 0. 0. 0. 0. 0.</_>
    <_>
      0. 0. 0. 0. 3. 0. 1. 0. 0. 0. 0. 0. 0. 0. 0. 0. 0. 0. 0. 0.</_>
    <_>
      0. 0. 0. 0. 2. 0. 1. 0. 0. 0. 0. 0. 0. 0. 0. 0. 0. 0. 0. 0.</_>
    <_>
      0. 0. 0. 0. 3. 0. 1. 0. 0. 0. 0. 0. 0. 0. 0. 0. 0. 0. 0. 0.</_>
    <_>
      0. 0. 0. 0. 3. 0. 0. 0. 0. 0. 0. 0. 0. 0. 0. 0. 0. 0. 0. 0.</_>
    <_>
      0. 0. 0. 0. 0. 0. 0. 0. 0. 0. 0. 0. 0. 0. 0. 0. 0. 1. 0. 0.</_>
    <_>
      0. 0. 1. 0. 0. 0. 0. 0. 1. 0. 0. 1. 0. 0. 0. 0. 0. 0. 0. 0.</_>
    <_>
      0. 0. 0. 0. 0. 0. 0. 0. 1. 0. 0. 1. 0. 0. 0. 0. 0. 0. 0. 0.</_>
    <_>
      0. 0. 1. 0. 0. 0. 0. 0. 0. 0. 0. 1. 0. 0. 0. 0. 0. 0. 0. 0.</_>
    <_>
      1. 0. 0. 0. 0. 0. 0. 0. 0. 0. 0. 0. 0. 0. 0. 0. 0. 0. 0. 0.</_>
    <_>
      1. 0. 0. 0. 0. 0. 0. 0. 0. 0. 0. 0. 0. 0. 0. 0. 0. 0. 0. 0.</_>
    <_>
      0. 0. 0. 0. 0. 0. 0. 0. 0. 0. 0. 0. 0. 0. 0. 0. 0. 0. 0. 1.</_>
    <_>
      0. 0. 0. 0. 0. 0. 0. 0. 0. 0. 0. 0. 0. 0. 0. 0. 0. 0. 0. 1.</_>
    <_>
      0. 0. 0. 0. 0. 0. 0. 0. 0. 0. 0. 0. 0. 0. 0. 0. 0. 0. 0. 1.</_>
    <_>
      0. 0. 0. 0. 0. 0. 0. 0. 0. 0. 0. 0. 0. 0. 0. 0. 0. 0. 0. 2.</_>
    <_>
      0. 0. 0. 0. 0. 0. 0. 0. 0. 0. 0. 0. 0. 0. 0. 1. 0. 1. 0. 0.</_>
    <_>
      0. 0. 0. 0. 0. 0. 0. 0. 0. 2. 0. 0. 0. 0. 0. 1. 0. 1. 0. 0.</_>
    <_>
      0. 0. 0. 0. 0. 0. 0. 0. 0. 1. 0. 0. 0. 0. 0. 1. 0. 1. 0. 0.</_>
    <_>
      0. 0. 0. 0. 0. 0. 0. 0. 0. 1. 0. 0. 0. 0. 0. 1. 0. 1. 0. 0.</_>
    <_>
      0. 0. 0. 0. 0. 0. 0. 0. 0. 2. 0. 0. 0. 0. 0. 1. 0. 0. 0. 1.</_>
    <_>
      0. 0. 0. 0. 0. 0. 0. 0. 0. 2. 0. 0. 0. 0. 0. 1. 0. 0. 0. 0.</_>
    <_>
      0. 0. 0. 0. 0. 0. 0. 0. 0. 1. 0. 0. 0. 0. 0. 0. 0. 2. 0. 0.</_>
    <_>
      0. 0. 0. 0. 0. 0. 0. 0. 0. 1. 0. 0. 0. 0. 0. 0. 0. 1. 0. 0.</_>
    <_>
      0. 0. 0. 0. 0. 0. 0. 0. 0. 2. 0. 0. 0. 0. 0. 0. 0. 2. 0. 0.</_>
    <_>
      0. 0. 0. 0. 0. 0. 0. 0. 0. 2. 0. 0. 0. 0. 0. 0. 0. 1. 0. 0.</_>
    <_>
      0. 0. 0. 0. 0. 0. 0. 0. 0. 2. 0. 0. 0. 0. 0. 0. 0. 1. 0. 0.</_>
    <_>
      0. 0. 0. 0. 0. 0. 0. 0. 0. 1. 0. 1. 0. 0. 0. 0. 0. 2. 0. 0.</_>
    <_>
      0. 0. 0. 0. 0. 0. 0. 0. 0. 1. 0. 1. 0. 0. 0. 1. 0. 0. 0. 2.</_>
    <_>
      0. 0. 0. 0. 1. 0. 0. 0. 0. 1. 0. 1. 0. 0. 0. 1. 0. 0. 0. 1.</_>
    <_>
      0. 0. 0. 0. 0. 0. 0. 0. 0. 0. 0. 0. 0. 1. 0. 1. 0. 0. 0. 2.</_>
    <_>
      0. 0. 0. 0. 0. 0. 0. 0. 0. 0. 0. 0. 0. 1. 0. 1. 0. 0. 0. 3.</_>
    <_>
      0. 0. 0. 0. 0. 0. 0. 0. 0. 0. 0. 0. 0. 2. 0. 1. 0. 0. 0. 0.</_>
    <_>
      0. 0. 0. 0. 0. 0. 0. 0. 0. 0. 0. 0. 0. 2. 0. 1. 0. 0. 0. 0.</_>
    <_>
      0. 0. 0. 0. 0. 0. 0. 0. 0. 0. 0. 0. 0. 2. 0. 0. 0. 1. 0. 0.</_>
    <_>
      0. 0. 0. 0. 0. 0. 0. 0. 0. 0. 0. 0. 0. 2. 0. 0. 0. 1. 0. 0.</_>
    <_>
      0. 0. 0. 0. 0. 0. 0. 0. 0. 0. 0. 0. 0. 1. 0. 0. 0. 2. 1. 0.</_>
    <_>
      0. 0. 0. 0. 0. 0. 0. 0. 0. 1. 0. 0. 0. 1. 0. 0. 0. 0. 1. 0.</_>
    <_>
      0. 0. 0. 0. 0. 0. 0. 0. 0. 1. 0. 0. 0. 1. 0. 0. 0. 0. 0. 0.</_>
    <_>
      0. 0. 0. 0. 0. 0. 0. 0. 0. 0. 0. 0. 0. 0. 0. 1. 0. 1. 0. 0.</_>
    <_>
      0. 0. 0. 0. 0. 0. 0. 0. 0. 0. 0. 0. 0. 0. 0. 1. 0. 1. 0. 0.</_>
    <_>
      0. 0. 0. 0. 0. 0. 0. 0. 0. 0. 0. 0. 0. 0. 0. 0. 0. 1. 0. 0.</_>
    <_>
      0. 0. 0. 0. 0. 0. 0. 0. 0. 1. 0. 0. 0. 0. 0. 0. 0. 1. 0. 3.</_>
    <_>
      0. 0. 0. 0. 0. 0. 0. 0. 0. 0. 0. 0. 0. 0. 0. 0. 0. 2. 0. 2.</_>
    <_>
      0. 0. 0. 0. 0. 0. 0. 0. 0. 1. 0. 0. 0. 0. 0. 0. 0. 1. 0. 4.</_>
    <_>
      0. 0. 0. 0. 0. 0. 0. 0. 0. 0. 0. 0. 0. 0. 0. 0. 0. 0. 0. 3.</_>
    <_>
      0. 0. 0. 0. 0. 0. 0. 0. 0. 0. 0. 0. 0. 0. 0. 1. 0. 0. 0. 2.</_>
    <_>
      0. 0. 0. 0. 1. 0. 0. 0. 0. 0. 0. 0. 0. 0. 0. 1. 0. 0. 0. 2.</_>
    <_>
      0. 0. 0. 0. 1. 0. 0. 0. 0. 0. 1. 0. 0. 0. 0. 0. 0. 1. 0. 2.</_>
    <_>
      0. 0. 0. 0. 1. 0. 1. 0. 0. 0. 1. 0. 0. 0. 0. 0. 0. 0. 0. 3.</_>
    <_>
      0. 1. 0. 0. 0. 0. 0. 0. 0. 0. 0. 0. 0. 0. 0. 0. 0. 0. 0. 0.</_>
    <_>
      0. 1. 0. 0. 0. 0. 0. 0. 0. 0. 0. 0. 0. 0. 0. 0. 0. 0. 0. 0.</_>
    <_>
      0. 0. 0. 0. 0. 0. 1. 1. 2. 0. 0. 0. 0. 0. 0. 0. 0. 0. 0. 0.</_>
    <_>
      0. 0. 0. 0. 0. 0. 1. 1. 2. 0. 0. 0. 0. 0. 0. 0. 0. 0. 0. 0.</_>
    <_>
      0. 0. 0. 0. 0. 0. 1. 1. 2. 0. 0. 0. 0. 0. 0. 0. 0. 0. 0. 0.</_>
    <_>
      0. 0. 0. 0. 1. 1. 0. 0. 2. 0. 0. 0. 0. 0. 0. 0. 0. 0. 0. 0.</_>
    <_>
      0. 0. 0. 0. 1. 1. 0. 0. 2. 0. 0. 0. 0. 0. 0. 0. 0. 0. 0. 0.</_>
    <_>
      0. 0. 0. 0. 2. 1. 0. 0. 2. 0. 0. 0. 0. 0. 0. 0. 0. 0. 0. 0.</_>
    <_>
      0. 0. 0. 0. 1. 1. 0. 0. 2. 0. 0. 0. 0. 0. 0. 0. 0. 0. 0. 0.</_>
    <_>
      0. 0. 1. 0. 0. 1. 0. 0. 1. 0. 0. 0. 0. 0. 0. 0. 0. 0. 0. 0.</_>
    <_>
      0. 0. 1. 1. 0. 0. 0. 0. 2. 0. 0. 0. 0. 0. 0. 0. 0. 0. 0. 0.</_>
    <_>
      0. 0. 1. 1. 1. 0. 0. 0. 1. 0. 0. 0. 0. 0. 0. 0. 0. 0. 0. 0.</_>
    <_>
      0. 0. 2. 1. 0. 0. 0. 0. 2. 0. 0. 0. 0. 0. 0. 0. 0. 0. 0. 0.</_>
    <_>
      1. 0. 1. 1. 0. 0. 0. 0. 1. 0. 0. 0. 0. 0. 0. 0. 0. 0. 0. 0.</_>
    <_>
      1. 0. 1. 1. 0. 0. 0. 0. 1. 0. 0. 0. 0. 0. 0. 0. 0. 0. 0. 0.</_>
    <_>
      1. 0. 1. 1. 1. 0. 0. 0. 1. 0. 0. 0. 0. 0. 0. 0. 0. 0. 0. 0.</_>
    <_>
      1. 0. 0. 1. 0. 0. 0. 0. 1. 0. 0. 0. 0. 0. 0. 0. 0. 0. 0. 0.</_>
    <_>
      1. 0. 0. 1. 0. 0. 0. 0. 1. 0. 0. 0. 0. 0. 0. 0. 0. 0. 0. 0.</_>
    <_>
      1. 0. 0. 1. 0. 0. 0. 0. 1. 0. 0. 0. 0. 0. 0. 0. 0. 0. 0. 0.</_>
    <_>
      1. 0. 1. 1. 0. 0. 1. 3. 0. 1. 0. 0. 0. 0. 0. 0. 0. 0. 0. 0.</_>
    <_>
      0. 0. 2. 1. 0. 0. 1. 3. 0. 0. 0. 0. 0. 0. 0. 0. 0. 0. 0. 0.</_>
    <_>
      0. 0. 2. 1. 0. 0. 1. 3. 0. 1. 0. 0. 0. 0. 0. 0. 0. 0. 0. 0.</_>
    <_>
      1. 0. 1. 1. 1. 0. 1. 3. 0. 1. 0. 0. 0. 0. 0. 0. 0. 0. 0. 0.</_>
    <_>
      1. 0. 1. 1. 0. 0. 2. 3. 0. 0. 0. 0. 0. 0. 0. 0. 0. 0. 0. 0.</_>
    <_>
      1. 0. 1. 1. 1. 0. 2. 3. 0. 0. 0. 0. 0. 0. 0. 0. 0. 0. 0. 0.</_>
    <_>
      2. 1. 0. 0. 0. 0. 2. 3. 0. 0. 0. 0. 0. 0. 0. 0. 0. 0. 0. 0.</_>
    <_>
      0. 0. 0. 0. 0. 0. 2. 3. 0. 0. 0. 1. 0. 0. 0. 0. 0. 0. 0. 0.</_>
    <_>
      0. 0. 0. 0. 0. 0. 2. 3. 0. 1. 0. 1. 0. 0. 0. 0. 0. 0. 0. 0.</_>
    <_>
      0. 0. 0. 0. 0. 0. 1. 3. 1. 0. 0. 1. 0. 0. 0. 0. 0. 0. 0. 0.</_>
    <_>
      2. 1. 0. 0. 0. 0. 6. 3. 0. 0. 0. 0. 0. 0. 0. 0. 0. 0. 0. 0.</_>
    <_>
      0. 0. 0. 0. 0. 0. 0. 0. 0. 0. 0. 0. 0. 0. 0. 1. 0. 1. 0. 0.</_>
    <_>
      0. 0. 0. 0. 0. 0. 0. 0. 1. 0. 0. 0. 0. 0. 0. 0. 0. 1. 0. 0.</_>
    <_>
      0. 0. 0. 0. 2. 0. 0. 1. 0. 0. 0. 0. 0. 1. 0. 0. 0. 0. 0. 0.</_>
    <_>
      0. 0. 0. 0. 0. 0. 0. 1. 0. 0. 0. 0. 0. 1. 0. 0. 0. 0. 0. 0.</_>
    <_>
      0. 0. 0. 0. 0. 0. 0. 1. 0. 0. 0. 0. 0. 1. 0. 0. 0. 1. 0. 0.</_>
    <_>
      0. 0. 0. 0. 0. 0. 0. 1. 0. 0. 0. 0. 0. 1. 0. 0. 0. 1. 0. 0.</_>
    <_>
      0. 0. 0. 0. 0. 0. 0. 0. 0. 1. 0. 0. 0. 1. 0. 0. 0. 1. 0. 0.</_>
    <_>
      0. 0. 0. 0. 0. 0. 0. 0. 0. 0. 0. 0. 0. 1. 0. 0. 0. 0. 0. 1.</_>
    <_>
      0. 0. 0. 0. 0. 0. 0. 0. 0. 0. 0. 0. 0. 1. 0. 0. 0. 0. 0. 2.</_>
    <_>
      0. 0. 0. 0. 0. 0. 0. 0. 0. 0. 0. 1. 0. 0. 0. 0. 0. 0. 0. 2.</_>
    <_>
      0. 0. 0. 0. 0. 0. 0. 0. 0. 0. 0. 1. 0. 0. 0. 0. 0. 0. 0. 2.</_>
    <_>
      0. 0. 0. 0. 0. 0. 0. 0. 0. 0. 0. 1. 0. 0. 0. 0. 0. 1. 0. 0.</_>
    <_>
      0. 0. 0. 0. 0. 0. 0. 0. 0. 0. 0. 1. 0. 0. 0. 1. 0. 0. 0. 2.</_>
    <_>
      0. 0. 0. 0. 0. 0. 0. 0. 0. 0. 0. 1. 0. 0. 0. 1. 0. 1. 0. 2.</_>
    <_>
      0. 0. 0. 0. 0. 0. 0. 0. 0. 0. 0. 1. 0. 0. 0. 0. 0. 1. 0. 2.</_>
    <_>
      0. 0. 0. 0. 0. 0. 0. 0. 0. 0. 1. 0. 0. 0. 0. 0. 0. 1. 0. 0.</_>
    <_>
      0. 0. 0. 0. 0. 0. 0. 0. 0. 0. 1. 0. 0. 0. 0. 0. 0. 1. 0. 0.</_>
    <_>
      0. 0. 0. 0. 0. 0. 0. 0. 0. 0. 1. 0. 0. 0. 0. 0. 0. 1. 0. 0.</_>
    <_>
      0. 0. 0. 0. 0. 0. 0. 0. 0. 0. 1. 0. 0. 0. 0. 0. 0. 2. 0. 0.</_>
    <_>
      0. 0. 0. 0. 0. 0. 0. 0. 0. 0. 1. 0. 0. 0. 0. 0. 0. 2. 0. 0.</_>
    <_>
      0. 0. 0. 0. 0. 0. 0. 0. 0. 0. 1. 0. 0. 0. 0. 0. 0. 1. 0. 0.</_>
    <_>
      0. 0. 0. 0. 0. 0. 0. 0. 0. 0. 0. 0. 0. 1. 0. 0. 0. 1. 0. 0.</_>
    <_>
      0. 0. 0. 0. 0. 0. 0. 0. 0. 0. 0. 0. 0. 0. 0. 1. 0. 2. 0. 0.</_>
    <_>
      0. 0. 0. 0. 0. 0. 0. 0. 0. 0. 0. 1. 0. 0. 0. 2. 0. 1. 0. 0.</_>
    <_>
      0. 0. 0. 0. 0. 0. 0. 0. 0. 0. 0. 1. 0. 0. 0. 0. 0. 3. 0. 0.</_>
    <_>
      0. 0. 0. 0. 0. 0. 0. 0. 0. 0. 0. 0. 0. 1. 0. 0. 0. 3. 0. 0.</_>
    <_>
      0. 0. 0. 0. 0. 0. 0. 0. 0. 0. 0. 0. 0. 1. 0. 0. 0. 3. 0. 0.</_>
    <_>
      0. 0. 0. 0. 0. 0. 0. 0. 0. 0. 0. 0. 0. 1. 0. 0. 0. 1. 0. 2.</_>
    <_>
      0. 0. 0. 0. 0. 0. 0. 0. 0. 0. 0. 1. 0. 0. 0. 1. 0. 1. 1. 0.</_>
    <_>
      0. 0. 0. 0. 0. 0. 0. 0. 0. 1. 0. 1. 0. 0. 0. 1. 0. 1. 0. 0.</_>
    <_>
      0. 0. 0. 0. 0. 0. 0. 1. 0. 0. 0. 1. 0. 0. 0. 0. 0. 0. 0. 1.</_>
    <_>
      0. 1. 0. 0. 0. 0. 0. 1. 0. 0. 0. 0. 0. 1. 0. 0. 0. 0. 0. 0.</_>
    <_>
      0. 1. 0. 0. 0. 0. 0. 1. 0. 0. 0. 0. 0. 1. 0. 0. 0. 0. 0. 0.</_>
    <_>
      0. 1. 0. 0. 0. 0. 0. 1. 0. 0. 0. 0. 0. 1. 0. 0. 0. 0. 0. 0.</_>
    <_>
      0. 1. 0. 0. 0. 0. 0. 1. 0. 0. 0. 0. 0. 1. 0. 0. 0. 0. 0. 0.</_>
    <_>
      0. 1. 0. 0. 0. 0. 0. 1. 0. 0. 0. 0. 0. 1. 0. 0. 0. 0. 0. 0.</_>
    <_>
      0. 1. 0. 0. 0. 0. 0. 1. 0. 0. 0. 0. 0. 1. 0. 0. 0. 0. 0. 0.</_>
    <_>
      0. 1. 0. 0. 0. 0. 0. 1. 0. 0. 0. 0. 0. 1. 0. 0. 0. 0. 0. 0.</_>
    <_>
      0. 1. 0. 0. 0. 0. 0. 1. 0. 0. 0. 0. 0. 1. 0. 0. 0. 0. 0. 0.</_>
    <_>
      0. 1. 0. 0. 0. 0. 0. 1. 0. 0. 0. 0. 0. 1. 0. 1. 0. 0. 0. 0.</_>
    <_>
      0. 1. 0. 0. 0. 0. 0. 1. 0. 0. 0. 0. 0. 1. 0. 1. 0. 0. 0. 0.</_>
    <_>
      0. 1. 0. 0. 0. 0. 0. 1. 0. 0. 0. 0. 0. 1. 0. 1. 0. 0. 0. 0.</_>
    <_>
      0. 1. 0. 0. 0. 0. 0. 1. 0. 0. 0. 0. 0. 1. 0. 1. 0. 0. 0. 0.</_>
    <_>
      0. 1. 0. 0. 0. 0. 0. 1. 0. 0. 0. 0. 0. 0. 0. 2. 0. 0. 0. 0.</_>
    <_>
      0. 1. 0. 0. 0. 0. 0. 1. 0. 0. 0. 0. 0. 0. 0. 2. 0. 0. 0. 0.</_>
    <_>
      0. 0. 0. 0. 1. 1. 0. 0. 0. 0. 0. 0. 0. 0. 0. 1. 0. 1. 0. 0.</_>
    <_>
      0. 0. 0. 0. 1. 1. 0. 0. 0. 0. 0. 0. 0. 0. 0. 2. 0. 2. 0. 0.</_>
    <_>
      0. 0. 0. 0. 1. 1. 0. 0. 0. 0. 0. 0. 0. 1. 0. 1. 0. 0. 0. 1.</_>
    <_>
      0. 0. 0. 0. 1. 1. 1. 0. 0. 0. 0. 0. 0. 0. 0. 0. 0. 0. 0. 0.</_>
    <_>
      0. 0. 0. 0. 1. 1. 1. 1. 0. 0. 0. 0. 0. 0. 0. 0. 0. 0. 0. 2.</_>
    <_>
      0. 0. 0. 0. 1. 1. 0. 1. 0. 0. 0. 0. 0. 0. 0. 1. 0. 0. 0. 0.</_>
    <_>
      0. 0. 0. 0. 1. 1. 0. 1. 0. 0. 0. 0. 0. 0. 0. 1. 0. 0. 0. 0.</_>
    <_>
      0. 0. 0. 0. 1. 1. 0. 1. 0. 0. 0. 0. 0. 0. 0. 1. 0. 0. 0. 0.</_>
    <_>
      0. 0. 0. 0. 1. 1. 0. 2. 0. 0. 0. 0. 0. 0. 0. 0. 0. 0. 0. 0.</_>
    <_>
      0. 0. 0. 0. 1. 1. 0. 2. 0. 0. 0. 0. 0. 0. 0. 0. 0. 0. 0. 0.</_>
    <_>
      0. 0. 0. 0. 2. 1. 0. 2. 0. 0. 0. 0. 0. 0. 0. 0. 0. 0. 0. 0.</_>
    <_>
      0. 0. 0. 0. 1. 1. 0. 2. 0. 0. 0. 0. 0. 0. 0. 0. 0. 0. 0. 0.</_>
    <_>
      0. 0. 0. 0. 1. 1. 0. 2. 0. 0. 0. 1. 0. 0. 0. 0. 0. 0. 0. 0.</_>
    <_>
      0. 0. 1. 0. 1. 1. 0. 2. 0. 0. 0. 1. 0. 0. 0. 0. 0. 0. 0. 0.</_>
    <_>
      0. 0. 1. 0. 1. 1. 0. 2. 0. 0. 0. 0. 0. 0. 0. 0. 0. 0. 0. 0.</_>
    <_>
      0. 0. 1. 0. 1. 1. 0. 2. 0. 0. 0. 0. 0. 0. 0. 0. 0. 0. 0. 0.</_>
    <_>
      0. 0. 1. 0. 1. 1. 0. 2. 0. 0. 0. 0. 0. 0. 0. 0. 0. 0. 0. 0.</_>
    <_>
      0. 0. 0. 0. 1. 1. 0. 2. 0. 0. 0. 0. 0. 0. 0. 0. 0. 0. 0. 0.</_>
    <_>
      0. 0. 0. 0. 1. 1. 0. 2. 0. 0. 0. 0. 0. 0. 0. 0. 0. 0. 0. 0.</_>
    <_>
      0. 0. 0. 0. 1. 1. 0. 2. 0. 0. 0. 0. 0. 0. 0. 0. 0. 0. 0. 1.</_>
    <_>
      0. 0. 0. 0. 1. 1. 0. 2. 0. 0. 0. 0. 0. 1. 0. 0. 0. 0. 0. 1.</_>
    <_>
      0. 0. 0. 0. 1. 1. 0. 2. 0. 0. 0. 0. 0. 0. 0. 1. 0. 1. 0. 0.</_>
    <_>
      0. 0. 1. 0. 0. 1. 0. 2. 0. 0. 0. 0. 0. 0. 0. 1. 0. 1. 0. 0.</_>
    <_>
      0. 0. 1. 1. 0. 1. 0. 0. 0. 0. 0. 0. 0. 1. 0. 1. 0. 1. 0. 0.</_>
    <_>
      0. 0. 0. 1. 0. 1. 0. 0. 0. 0. 0. 0. 0. 1. 0. 1. 0. 1. 0. 0.</_>
    <_>
      0. 0. 0. 0. 0. 2. 0. 0. 0. 0. 0. 0. 0. 0. 0. 1. 0. 0. 0. 1.</_>
    <_>
      0. 0. 0. 0. 0. 2. 0. 0. 0. 0. 0. 0. 0. 0. 0. 1. 0. 0. 0. 1.</_>
    <_>
      0. 0. 0. 0. 0. 2. 0. 0. 0. 0. 0. 0. 0. 0. 0. 0. 0. 1. 0. 0.</_>
    <_>
      0. 0. 0. 0. 0. 2. 0. 0. 0. 0. 0. 0. 0. 0. 0. 0. 0. 1. 0. 0.</_>
    <_>
      0. 0. 0. 0. 0. 0. 0. 0. 0. 0. 0. 0. 0. 1. 0. 2. 0. 0. 0. 4.</_>
    <_>
      0. 0. 0. 0. 0. 0. 0. 0. 0. 0. 0. 0. 0. 1. 0. 2. 0. 1. 0. 3.</_>
    <_>
      0. 0. 0. 0. 0. 0. 0. 0. 0. 0. 0. 0. 0. 2. 0. 1. 0. 1. 0. 2.</_>
    <_>
      0. 0. 0. 0. 0. 0. 0. 0. 0. 0. 0. 0. 0. 2. 0. 2. 0. 0. 0. 2.</_>
    <_>
      0. 0. 0. 0. 0. 0. 0. 0. 0. 0. 0. 0. 0. 3. 0. 1. 0. 0. 0. 2.</_>
    <_>
      0. 0. 0. 0. 0. 0. 0. 0. 0. 0. 0. 0. 0. 4. 0. 0. 0. 0. 0. 2.</_>
    <_>
      0. 0. 0. 0. 0. 0. 0. 0. 0. 0. 0. 0. 0. 3. 0. 0. 0. 1. 0. 1.</_>
    <_>
      0. 0. 0. 0. 0. 0. 0. 0. 0. 0. 0. 1. 0. 3. 0. 1. 0. 0. 0. 2.</_>
    <_>
      0. 0. 0. 0. 0. 0. 0. 0. 0. 0. 0. 0. 0. 4. 0. 1. 0. 3. 0. 1.</_>
    <_>
      0. 0. 0. 0. 0. 0. 0. 0. 0. 0. 0. 0. 0. 4. 0. 0. 0. 4. 0. 1.</_>
    <_>
      0. 0. 0. 0. 0. 0. 0. 0. 0. 0. 0. 0. 0. 4. 0. 0. 0. 3. 0. 1.</_>
    <_>
      0. 0. 0. 0. 0. 0. 0. 0. 0. 0. 0. 0. 0. 3. 0. 2. 0. 1. 0. 2.</_>
    <_>
      0. 0. 0. 0. 0. 0. 0. 0. 0. 0. 0. 0. 0. 3. 0. 2. 0. 1. 0. 2.</_>
    <_>
      0. 0. 0. 0. 0. 1. 0. 0. 0. 0. 0. 1. 0. 0. 0. 0. 0. 2. 0. 1.</_>
    <_>
      0. 0. 0. 0. 0. 0. 0. 0. 0. 0. 0. 0. 0. 0. 0. 0. 0. 0. 0. 1.</_>
    <_>
      0. 0. 0. 0. 0. 0. 0. 0. 0. 0. 0. 0. 0. 0. 0. 0. 0. 0. 0. 1.</_>
    <_>
      0. 0. 0. 0. 0. 0. 0. 0. 0. 0. 0. 0. 0. 0. 0. 0. 0. 1. 0. 0.</_>
    <_>
      0. 0. 0. 0. 0. 0. 0. 0. 0. 0. 0. 0. 0. 0. 0. 0. 0. 1. 0. 0.</_>
    <_>
      0. 0. 0. 0. 0. 0. 0. 0. 0. 0. 0. 0. 0. 0. 0. 0. 0. 0. 0. 1.</_>
    <_>
      0. 0. 0. 0. 0. 0. 0. 0. 0. 1. 0. 0. 0. 0. 0. 0. 0. 0. 0. 1.</_>
    <_>
      0. 0. 0. 0. 0. 0. 0. 0. 0. 0. 0. 0. 0. 0. 0. 0. 0. 2. 0. 1.</_>
    <_>
      0. 0. 0. 0. 0. 0. 0. 0. 0. 0. 0. 0. 0. 0. 0. 0. 0. 2. 0. 0.</_>
    <_>
      0. 0. 0. 0. 0. 0. 0. 0. 0. 0. 0. 0. 0. 0. 0. 0. 0. 2. 0. 0.</_>
    <_>
      0. 0. 0. 0. 0. 0. 0. 0. 0. 0. 0. 0. 0. 0. 0. 0. 0. 2. 0. 0.</_>
    <_>
      0. 0. 0. 0. 0. 0. 0. 0. 0. 0. 0. 0. 0. 0. 0. 0. 0. 2. 0. 0.</_>
    <_>
      0. 0. 0. 0. 0. 1. 0. 2. 0. 1. 0. 1. 0. 0. 0. 0. 0. 0. 0. 0.</_>
    <_>
      0. 0. 0. 0. 0. 1. 0. 2. 0. 1. 0. 0. 0. 0. 0. 0. 0. 0. 0. 0.</_>
    <_>
      0. 0. 0. 0. 0. 1. 0. 2. 0. 0. 0. 0. 0. 0. 0. 0. 0. 0. 0. 0.</_>
    <_>
      0. 1. 0. 0. 0. 1. 0. 2. 0. 1. 0. 0. 0. 0. 0. 0. 0. 0. 0. 0.</_>
    <_>
      0. 1. 0. 0. 0. 1. 0. 2. 0. 1. 0. 0. 0. 0. 0. 0. 0. 0. 0. 0.</_>
    <_>
      0. 1. 0. 0. 0. 1. 0. 2. 0. 2. 0. 0. 0. 0. 0. 0. 0. 0. 0. 0.</_>
    <_>
      0. 0. 0. 0. 5. 0. 4. 0. 3. 0. 0. 1. 0. 0. 0. 0. 0. 0. 0. 0.</_>
    <_>
      0. 0. 0. 0. 5. 0. 4. 0. 2. 0. 0. 1. 0. 0. 0. 0. 0. 0. 0. 0.</_>
    <_>
      0. 0. 0. 0. 8. 0. 4. 0. 2. 0. 0. 1. 0. 0. 0. 0. 0. 0. 0. 0.</_>
    <_>
      0. 0. 0. 0. 8. 0. 3. 0. 3. 0. 0. 1. 0. 0. 0. 0. 0. 0. 0. 0.</_>
    <_>
      0. 0. 0. 0. 7. 0. 4. 0. 3. 0. 0. 1. 0. 0. 0. 0. 0. 0. 0. 0.</_>
    <_>
      0. 0. 0. 0. 2. 0. 3. 0. 4. 0. 0. 1. 0. 0. 0. 0. 0. 0. 0. 0.</_>
    <_>
      0. 0. 0. 0. 3. 0. 4. 0. 3. 0. 0. 1. 0. 0. 0. 0. 0. 0. 0. 0.</_>
    <_>
      0. 0. 0. 0. 3. 0. 2. 0. 3. 0. 0. 0. 0. 0. 0. 0. 0. 0. 0. 0.</_>
    <_>
      0. 0. 0. 0. 4. 2. 1. 0. 3. 0. 0. 0. 0. 0. 0. 0. 0. 0. 0. 0.</_>
    <_>
      0. 0. 0. 0. 5. 2. 1. 0. 3. 0. 0. 0. 0. 0. 0. 0. 0. 0. 0. 0.</_>
    <_>
      0. 0. 0. 0. 4. 2. 1. 0. 3. 0. 0. 0. 0. 0. 0. 0. 0. 0. 0. 0.</_>
    <_>
      0. 0. 0. 0. 5. 0. 1. 0. 4. 0. 0. 0. 0. 0. 0. 0. 0. 1. 0. 0.</_>
    <_>
      0. 0. 0. 0. 5. 0. 1. 0. 3. 0. 0. 0. 0. 0. 0. 1. 0. 0. 0. 0.</_>
    <_>
      0. 0. 0. 0. 4. 0. 2. 0. 4. 0. 0. 1. 0. 0. 0. 0. 0. 0. 0. 0.</_>
    <_>
      0. 0. 0. 0. 4. 0. 1. 0. 4. 0. 0. 1. 0. 0. 0. 0. 0. 0. 0. 0.</_>
    <_>
      0. 0. 0. 0. 5. 0. 1. 0. 4. 0. 0. 0. 0. 1. 0. 0. 0. 0. 0. 0.</_>
    <_>
      0. 0. 0. 0. 4. 0. 1. 0. 4. 0. 0. 0. 0. 0. 0. 1. 0. 0. 0. 0.</_>
    <_>
      0. 0. 0. 0. 5. 0. 1. 0. 5. 0. 0. 0. 0. 0. 0. 0. 0. 0. 0. 0.</_>
    <_>
      0. 0. 0. 0. 3. 0. 1. 0. 4. 0. 0. 0. 0. 0. 0. 0. 0. 0. 0. 0.</_>
    <_>
      0. 0. 0. 0. 3. 0. 3. 0. 5. 0. 0. 0. 0. 0. 0. 0. 0. 0. 0. 0.</_>
    <_>
      0. 0. 0. 0. 4. 0. 3. 0. 3. 0. 0. 0. 0. 0. 0. 0. 0. 0. 0. 1.</_>
    <_>
      0. 0. 1. 0. 1. 0. 6. 0. 4. 0. 0. 0. 0. 0. 0. 0. 0. 0. 0. 0.</_>
    <_>
      0. 0. 1. 0. 2. 0. 4. 0. 3. 0. 0. 0. 0. 0. 0. 0. 0. 0. 0. 0.</_>
    <_>
      0. 0. 0. 0. 4. 0. 3. 0. 6. 0. 0. 0. 0. 0. 0. 0. 0. 0. 0. 0.</_>
    <_>
      0. 0. 0. 0. 0. 1. 0. 0. 0. 0. 0. 1. 0. 0. 0. 0. 0. 0. 0. 1.</_>
    <_>
      0. 0. 0. 0. 0. 0. 0. 0. 0. 0. 0. 0. 0. 0. 0. 0. 0. 0. 1. 0.</_>
    <_>
      0. 0. 0. 0. 0. 0. 0. 0. 0. 0. 0. 0. 0. 0. 0. 0. 0. 0. 1. 0.</_>
    <_>
      0. 0. 0. 0. 0. 0. 0. 0. 0. 0. 0. 0. 0. 0. 0. 0. 0. 0. 0. 1.</_>
    <_>
      0. 0. 0. 0. 0. 0. 0. 0. 0. 0. 0. 0. 0. 0. 0. 0. 0. 0. 0. 1.</_>
    <_>
      0. 0. 0. 0. 0. 0. 0. 0. 1. 0. 0. 0. 0. 0. 0. 1. 0. 0. 0. 0.</_>
    <_>
      0. 0. 0. 0. 0. 0. 0. 0. 1. 0. 0. 0. 0. 0. 0. 0. 0. 0. 0. 0.</_>
    <_>
      0. 0. 0. 0. 0. 0. 0. 0. 0. 0. 0. 0. 0. 0. 0. 1. 0. 0. 0. 0.</_>
    <_>
      0. 0. 0. 0. 0. 0. 0. 0. 0. 0. 0. 0. 0. 0. 0. 1. 0. 0. 0. 0.</_>
    <_>
      0. 0. 0. 0. 0. 0. 0. 0. 0. 0. 0. 0. 0. 0. 0. 1. 0. 0. 0. 0.</_>
    <_>
      0. 0. 0. 0. 0. 0. 0. 0. 0. 0. 0. 1. 0. 0. 0. 2. 0. 0. 0. 0.</_>
    <_>
      0. 0. 0. 0. 0. 0. 0. 0. 1. 0. 0. 0. 0. 1. 0. 2. 0. 0. 0. 0.</_>
    <_>
      0. 0. 0. 0. 0. 0. 2. 0. 2. 0. 0. 0. 0. 0. 0. 1. 0. 0. 0. 0.</_>
    <_>
      0. 0. 0. 0. 0. 0. 0. 0. 2. 0. 0. 1. 0. 0. 0. 0. 0. 0. 0. 1.</_>
    <_>
      0. 0. 0. 0. 0. 0. 0. 0. 2. 2. 0. 1. 0. 0. 0. 1. 0. 0. 0. 0.</_>
    <_>
      0. 0. 0. 0. 0. 0. 0. 0. 4. 2. 0. 1. 0. 1. 0. 0. 0. 0. 0. 1.</_>
    <_>
      0. 0. 0. 0. 0. 0. 0. 0. 2. 2. 0. 1. 0. 1. 0. 0. 0. 0. 0. 0.</_>
    <_>
      0. 0. 0. 0. 0. 0. 0. 0. 2. 0. 0. 0. 0. 0. 0. 0. 0. 0. 0. 1.</_>
    <_>
      0. 0. 0. 0. 0. 0. 0. 0. 2. 1. 0. 1. 0. 0. 0. 1. 0. 0. 0. 2.</_>
    <_>
      0. 0. 0. 0. 1. 0. 0. 0. 2. 1. 0. 1. 0. 0. 0. 1. 0. 0. 0. 1.</_>
    <_>
      0. 0. 0. 0. 1. 0. 0. 0. 2. 0. 0. 0. 0. 0. 0. 0. 0. 0. 0. 0.</_>
    <_>
      0. 0. 0. 0. 1. 1. 0. 0. 2. 0. 0. 0. 0. 0. 0. 0. 0. 0. 0. 1.</_>
    <_>
      0. 0. 0. 0. 0. 0. 0. 0. 2. 0. 0. 0. 0. 0. 0. 0. 0. 0. 0. 0.</_>
    <_>
      0. 0. 0. 0. 0. 0. 1. 0. 2. 1. 0. 0. 0. 0. 0. 0. 0. 0. 0. 0.</_>
    <_>
      0. 0. 0. 0. 0. 0. 0. 0. 3. 1. 0. 0. 0. 0. 0. 0. 0. 0. 0. 1.</_>
    <_>
      0. 0. 0. 0. 0. 0. 0. 1. 2. 1. 0. 1. 0. 0. 0. 0. 0. 0. 0. 2.</_>
    <_>
      0. 0. 1. 0. 0. 1. 0. 0. 0. 1. 0. 1. 0. 0. 0. 0. 0. 1. 0. 0.</_>
    <_>
      0. 0. 0. 0. 0. 0. 0. 0. 3. 1. 0. 1. 1. 0. 0. 0. 0. 1. 0. 0.</_>
    <_>
      0. 0. 0. 0. 0. 0. 0. 0. 2. 1. 0. 0. 1. 1. 0. 0. 0. 0. 0. 1.</_>
    <_>
      0. 0. 0. 0. 0. 1. 0. 0. 4. 1. 1. 0. 0. 1. 0. 0. 0. 0. 0. 1.</_>
    <_>
      0. 0. 0. 1. 0. 0. 0. 0. 3. 1. 1. 0. 0. 0. 0. 0. 0. 0. 0. 1.</_>
    <_>
      0. 0. 0. 1. 0. 0. 0. 0. 3. 1. 1. 0. 0. 0. 0. 0. 0. 1. 0. 0.</_>
    <_>
      0. 0. 0. 0. 0. 0. 0. 0. 3. 1. 0. 1. 0. 0. 0. 0. 0. 1. 0. 0.</_>
    <_>
      0. 0. 1. 0. 0. 0. 0. 0. 5. 0. 0. 1. 0. 0. 0. 0. 0. 1. 0. 0.</_>
    <_>
      0. 0. 0. 0. 0. 0. 0. 0. 4. 0. 0. 1. 0. 0. 0. 0. 0. 1. 0. 1.</_>
    <_>
      0. 0. 0. 0. 0. 0. 0. 0. 4. 0. 0. 1. 0. 0. 0. 0. 0. 2. 0. 1.</_>
    <_>
      0. 0. 0. 0. 0. 0. 1. 0. 3. 1. 0. 1. 0. 0. 0. 0. 0. 3. 0. 1.</_>
    <_>
      0. 0. 0. 0. 0. 0. 0. 0. 3. 1. 0. 1. 0. 0. 0. 0. 1. 2. 0. 1.</_>
    <_>
      0. 0. 0. 0. 0. 0. 2. 0. 4. 1. 0. 1. 0. 0. 0. 1. 0. 1. 0. 1.</_>
    <_>
      0. 0. 0. 0. 0. 0. 2. 0. 2. 2. 0. 1. 0. 0. 0. 1. 0. 1. 1. 1.</_>
    <_>
      0. 0. 0. 0. 0. 0. 0. 0. 3. 2. 0. 1. 0. 0. 0. 1. 0. 0. 1. 2.</_>
    <_>
      0. 0. 0. 0. 0. 0. 0. 1. 3. 0. 0. 0. 0. 0. 0. 1. 0. 0. 1. 1.</_>
    <_>
      0. 0. 0. 0. 0. 0. 0. 0. 3. 1. 0. 0. 0. 0. 0. 1. 0. 0. 0. 2.</_>
    <_>
      0. 0. 0. 0. 0. 0. 0. 0. 3. 1. 0. 0. 0. 0. 0. 1. 0. 0. 0. 2.</_>
    <_>
      0. 0. 0. 0. 0. 0. 2. 1. 1. 1. 0. 0. 0. 0. 0. 1. 0. 0. 0. 2.</_>
    <_>
      0. 0. 0. 0. 0. 0. 0. 1. 2. 0. 0. 0. 0. 0. 0. 1. 0. 0. 0. 1.</_>
    <_>
      0. 0. 0. 0. 0. 0. 0. 1. 4. 1. 0. 0. 0. 0. 0. 1. 0. 0. 0. 1.</_>
    <_>
      0. 0. 0. 0. 0. 0. 0. 1. 5. 1. 0. 0. 0. 1. 0. 0. 0. 0. 0. 0.</_>
    <_>
      0. 0. 0. 0. 0. 0. 0. 1. 4. 1. 0. 0. 0. 1. 0. 0. 0. 0. 0. 0.</_>
    <_>
      0. 0. 0. 0. 0. 0. 1. 1. 2. 1. 0. 0. 0. 1. 0. 0. 0. 0. 0. 0.</_>
    <_>
      0. 0. 0. 0. 0. 0. 0. 1. 3. 1. 0. 0. 0. 0. 0. 1. 0. 0. 0. 0.</_>
    <_>
      0. 0. 0. 0. 0. 0. 1. 1. 3. 1. 0. 0. 0. 0. 0. 1. 0. 0. 0. 0.</_>
    <_>
      0. 0. 0. 0. 0. 0. 0. 1. 4. 1. 0. 0. 0. 0. 0. 1. 0. 0. 0. 0.</_>
    <_>
      0. 0. 0. 0. 0. 0. 0. 1. 5. 1. 0. 0. 0. 0. 0. 0. 0. 1. 0. 0.</_>
    <_>
      0. 0. 0. 0. 0. 0. 1. 1. 4. 1. 0. 0. 0. 0. 0. 0. 0. 1. 0. 0.</_>
    <_>
      0. 0. 0. 0. 0. 0. 2. 1. 3. 1. 0. 0. 0. 0. 0. 0. 0. 0. 0. 1.</_>
    <_>
      0. 0. 0. 0. 2. 0. 3. 0. 0. 0. 0. 0. 0. 0. 0. 0. 0. 0. 0. 1.</_>
    <_>
      0. 0. 0. 0. 3. 0. 2. 0. 0. 0. 0. 0. 0. 0. 0. 0. 0. 0. 0. 0.</_>
    <_>
      0. 0. 0. 0. 4. 0. 2. 0. 0. 0. 0. 0. 0. 0. 0. 0. 0. 0. 0. 1.</_>
    <_>
      0. 0. 0. 0. 5. 0. 1. 0. 0. 0. 0. 0. 0. 0. 0. 0. 0. 0. 0. 1.</_>
    <_>
      0. 0. 0. 0. 4. 0. 1. 0. 0. 0. 0. 0. 0. 0. 0. 0. 0. 1. 0. 1.</_>
    <_>
      0. 0. 0. 0. 3. 0. 1. 0. 1. 0. 0. 0. 0. 0. 0. 0. 0. 1. 0. 1.</_>
    <_>
      0. 0. 0. 0. 3. 0. 1. 0. 1. 0. 0. 0. 0. 0. 0. 1. 0. 0. 0. 1.</_>
    <_>
      0. 0. 0. 0. 2. 0. 2. 0. 1. 0. 0. 0. 0. 0. 0. 1. 0. 0. 0. 1.</_>
    <_>
      0. 0. 0. 0. 2. 0. 1. 0. 1. 0. 0. 0. 0. 0. 0. 1. 0. 0. 0. 1.</_>
    <_>
      0. 0. 0. 0. 1. 0. 2. 0. 1. 0. 0. 0. 0. 0. 0. 1. 0. 0. 1. 1.</_>
    <_>
      0. 0. 0. 0. 3. 0. 0. 0. 1. 0. 0. 0. 0. 0. 0. 1. 1. 0. 0. 1.</_>
    <_>
      0. 0. 0. 0. 3. 0. 1. 0. 1. 0. 0. 0. 0. 0. 0. 1. 1. 0. 0. 0.</_>
    <_>
      0. 0. 0. 0. 3. 0. 0. 0. 1. 0. 0. 0. 0. 1. 1. 0. 0. 0. 0. 1.</_>
    <_>
      0. 0. 0. 0. 3. 0. 0. 0. 1. 0. 0. 0. 0. 0. 0. 1. 1. 0. 0. 0.</_>
    <_>
      0. 0. 0. 0. 2. 0. 0. 0. 1. 0. 0. 0. 0. 1. 0. 0. 0. 0. 0. 0.</_>
    <_>
      0. 0. 0. 0. 2. 0. 1. 0. 1. 0. 0. 0. 0. 1. 1. 0. 0. 0. 0. 0.</_>
    <_>
      0. 0. 0. 0. 2. 0. 0. 0. 2. 0. 0. 0. 0. 1. 1. 0. 0. 0. 0. 0.</_>
    <_>
      0. 0. 0. 0. 0. 0. 1. 0. 3. 0. 0. 0. 0. 1. 0. 0. 0. 0. 1. 0.</_>
    <_>
      0. 0. 0. 0. 0. 0. 6. 0. 2. 0. 0. 0. 0. 1. 0. 0. 0. 0. 0. 0.</_>
    <_>
      0. 0. 0. 0. 0. 0. 6. 0. 1. 0. 0. 0. 0. 1. 1. 0. 0. 0. 0. 0.</_>
    <_>
      0. 0. 0. 0. 1. 0. 7. 0. 0. 0. 0. 0. 0. 1. 0. 0. 0. 0. 0. 0.</_>
    <_>
      0. 0. 0. 0. 1. 0. 5. 0. 0. 0. 0. 0. 0. 0. 0. 0. 0. 0. 0. 0.</_>
    <_>
      0. 0. 0. 0. 2. 0. 6. 0. 0. 0. 0. 0. 0. 0. 0. 0. 0. 0. 0. 0.</_>
    <_>
      0. 0. 0. 0. 2. 0. 5. 0. 0. 0. 0. 0. 0. 0. 0. 0. 0. 0. 0. 0.</_>
    <_>
      0. 0. 0. 0. 3. 0. 2. 0. 1. 0. 0. 0. 0. 0. 0. 0. 0. 0. 0. 0.</_>
    <_>
      0. 0. 0. 0. 4. 0. 2. 0. 0. 0. 0. 0. 0. 0. 0. 0. 0. 0. 0. 0.</_>
    <_>
      0. 0. 0. 0. 5. 0. 0. 0. 1. 0. 0. 0. 0. 0. 0. 0. 0. 1. 0. 0.</_>
    <_>
      0. 0. 0. 0. 5. 0. 1. 0. 1. 0. 0. 1. 0. 0. 0. 0. 0. 0. 0. 0.</_>
    <_>
      0. 0. 0. 0. 3. 0. 0. 0. 2. 0. 0. 1. 0. 0. 0. 0. 0. 0. 0. 0.</_>
    <_>
      0. 0. 0. 0. 3. 0. 2. 0. 2. 0. 0. 0. 0. 0. 0. 0. 0. 0. 0. 0.</_>
    <_>
      0. 0. 0. 0. 0. 0. 0. 0. 4. 0. 0. 1. 0. 0. 0. 0. 0. 0. 0. 0.</_>
    <_>
      0. 1. 0. 0. 0. 0. 0. 0. 4. 0. 0. 0. 0. 0. 0. 0. 0. 0. 0. 0.</_>
    <_>
      0. 1. 0. 0. 0. 0. 0. 0. 3. 0. 0. 0. 0. 0. 0. 0. 0. 0. 0. 0.</_>
    <_>
      0. 0. 0. 0. 0. 0. 0. 0. 0. 1. 0. 0. 0. 0. 0. 0. 0. 0. 0. 0.</_>
    <_>
      0. 0. 0. 0. 0. 0. 0. 0. 0. 0. 0. 0. 0. 0. 0. 0. 0. 0. 0. 0.</_>
    <_>
      0. 0. 0. 0. 0. 0. 0. 1. 0. 0. 0. 0. 0. 0. 0. 0. 0. 0. 0. 0.</_>
    <_>
      0. 0. 0. 0. 0. 0. 0. 1. 0. 0. 0. 0. 0. 0. 0. 0. 0. 0. 0. 0.</_>
    <_>
      0. 0. 0. 0. 0. 0. 0. 1. 0. 0. 0. 0. 0. 0. 0. 0. 0. 0. 0. 0.</_>
    <_>
      0. 0. 0. 0. 0. 0. 0. 1. 0. 0. 0. 0. 0. 0. 0. 0. 0. 0. 0. 0.</_>
    <_>
      0. 0. 0. 0. 0. 0. 0. 1. 0. 0. 0. 0. 0. 0. 0. 0. 0. 0. 0. 0.</_>
    <_>
      0. 0. 0. 0. 0. 0. 0. 1. 0. 0. 0. 0. 0. 0. 0. 0. 0. 0. 0. 1.</_>
    <_>
      0. 0. 0. 0. 0. 0. 0. 1. 0. 0. 0. 0. 0. 0. 0. 0. 0. 0. 0. 1.</_>
    <_>
      0. 0. 0. 0. 0. 0. 0. 1. 0. 0. 0. 0. 0. 0. 0. 0. 0. 1. 0. 0.</_>
    <_>
      0. 0. 0. 0. 0. 0. 2. 1. 0. 0. 0. 0. 0. 0. 0. 0. 0. 1. 0. 0.</_>
    <_>
      0. 0. 0. 0. 0. 0. 3. 1. 0. 0. 0. 0. 0. 0. 0. 1. 0. 0. 0. 0.</_>
    <_>
      0. 0. 0. 0. 0. 0. 3. 1. 0. 0. 0. 0. 0. 1. 0. 0. 0. 0. 0. 0.</_>
    <_>
      0. 0. 1. 0. 0. 1. 0. 0. 0. 0. 0. 1. 0. 0. 0. 0. 0. 0. 0. 0.</_>
    <_>
      1. 0. 0. 1. 0. 0. 0. 0. 0. 0. 0. 1. 0. 0. 0. 0. 0. 0. 0. 0.</_>
    <_>
      0. 0. 0. 0. 1. 0. 0. 0. 0. 0. 0. 1. 0. 0. 0. 0. 0. 0. 0. 0.</_>
    <_>
      1. 0. 0. 0. 0. 0. 0. 0. 0. 0. 0. 0. 0. 0. 0. 0. 0. 0. 0. 0.</_>
    <_>
      1. 0. 0. 0. 0. 0. 0. 0. 0. 0. 0. 0. 0. 0. 0. 0. 0. 0. 0. 0.</_>
    <_>
      1. 0. 0. 1. 0. 0. 0. 0. 0. 0. 0. 0. 0. 0. 0. 0. 0. 0. 0. 0.</_>
    <_>
      1. 0. 0. 1. 0. 0. 0. 0. 0. 0. 0. 0. 0. 0. 0. 0. 0. 0. 0. 0.</_>
    <_>
      2. 0. 0. 1. 0. 0. 0. 0. 0. 0. 0. 0. 0. 0. 0. 0. 0. 0. 0. 0.</_>
    <_>
      1. 0. 0. 0. 0. 1. 0. 0. 0. 0. 0. 0. 0. 0. 0. 0. 0. 0. 0. 0.</_>
    <_>
      1. 0. 0. 1. 0. 0. 0. 0. 0. 0. 0. 0. 0. 0. 0. 0. 0. 0. 0. 0.</_>
    <_>
      1. 0. 0. 1. 0. 0. 0. 0. 0. 0. 0. 0. 0. 0. 0. 0. 0. 0. 0. 0.</_>
    <_>
      1. 0. 0. 1. 0. 0. 0. 0. 0. 0. 0. 0. 0. 0. 0. 0. 0. 0. 0. 0.</_>
    <_>
      1. 0. 0. 1. 0. 0. 0. 0. 0. 0. 0. 0. 0. 0. 0. 0. 0. 0. 0. 0.</_>
    <_>
      0. 0. 0. 0. 4. 0. 2. 0. 0. 0. 0. 0. 0. 0. 0. 0. 0. 0. 0. 0.</_>
    <_>
      0. 0. 0. 0. 3. 0. 4. 0. 0. 0. 0. 0. 0. 0. 0. 0. 0. 0. 0. 0.</_>
    <_>
      0. 0. 0. 0. 4. 0. 3. 0. 0. 1. 0. 0. 0. 0. 0. 0. 0. 0. 0. 0.</_>
    <_>
      0. 0. 0. 0. 3. 0. 3. 0. 0. 1. 0. 0. 0. 0. 0. 0. 0. 0. 0. 0.</_>
    <_>
      0. 0. 0. 0. 4. 0. 1. 0. 0. 1. 0. 0. 0. 0. 0. 0. 0. 0. 0. 0.</_>
    <_>
      0. 0. 0. 0. 4. 0. 2. 0. 0. 1. 0. 0. 0. 0. 0. 0. 0. 0. 0. 0.</_>
    <_>
      0. 0. 0. 0. 5. 0. 1. 0. 1. 1. 0. 0. 0. 0. 0. 0. 0. 0. 0. 1.</_>
    <_>
      0. 0. 0. 0. 5. 0. 1. 0. 1. 1. 0. 0. 0. 0. 0. 0. 0. 0. 0. 1.</_>
    <_>
      0. 0. 0. 0. 5. 0. 2. 0. 0. 1. 0. 0. 0. 0. 0. 0. 0. 0. 0. 1.</_>
    <_>
      0. 0. 0. 0. 4. 0. 3. 0. 1. 1. 0. 0. 0. 0. 0. 0. 0. 0. 0. 1.</_>
    <_>
      0. 0. 0. 0. 4. 0. 2. 0. 1. 1. 0. 0. 0. 0. 0. 0. 0. 0. 0. 1.</_>
    <_>
      0. 0. 0. 0. 4. 0. 2. 0. 2. 0. 0. 0. 0. 0. 0. 0. 0. 0. 0. 1.</_>
    <_>
      0. 0. 0. 0. 4. 0. 1. 0. 2. 1. 0. 0. 0. 0. 0. 0. 0. 0. 0. 1.</_>
    <_>
      0. 0. 0. 0. 4. 0. 2. 0. 2. 0. 0. 0. 0. 0. 0. 1. 0. 0. 0. 0.</_>
    <_>
      0. 0. 0. 0. 5. 0. 2. 0. 1. 1. 0. 0. 0. 0. 0. 0. 0. 0. 0. 0.</_>
    <_>
      0. 0. 0. 0. 5. 0. 2. 0. 2. 2. 0. 0. 0. 0. 0. 0. 0. 0. 0. 0.</_>
    <_>
      0. 0. 0. 0. 4. 0. 0. 0. 2. 2. 0. 0. 0. 0. 0. 0. 0. 0. 0. 0.</_>
    <_>
      0. 0. 0. 0. 4. 0. 1. 0. 2. 2. 0. 0. 0. 0. 0. 0. 0. 0. 0. 0.</_>
    <_>
      0. 0. 0. 0. 5. 0. 0. 1. 1. 1. 0. 0. 0. 0. 0. 0. 0. 0. 0. 0.</_>
    <_>
      0. 0. 0. 0. 4. 0. 0. 1. 2. 0. 0. 0. 0. 0. 0. 0. 0. 0. 0. 0.</_>
    <_>
      0. 0. 0. 0. 2. 0. 3. 1. 1. 1. 0. 0. 0. 0. 0. 0. 0. 0. 0. 0.</_>
    <_>
      0. 0. 0. 0. 1. 0. 5. 1. 0. 1. 0. 0. 0. 0. 0. 0. 0. 0. 0. 0.</_>
    <_>
      0. 0. 0. 0. 0. 0. 4. 2. 1. 1. 0. 0. 0. 0. 0. 0. 0. 0. 0. 0.</_>
    <_>
      0. 0. 0. 0. 0. 0. 5. 1. 0. 0. 0. 0. 0. 0. 0. 0. 0. 0. 0. 0.</_>
    <_>
      0. 0. 0. 0. 0. 0. 7. 0. 0. 0. 0. 0. 0. 0. 0. 0. 0. 0. 0. 0.</_>
    <_>
      0. 0. 0. 0. 0. 0. 8. 1. 0. 0. 0. 0. 0. 0. 0. 0. 0. 0. 0. 0.</_>
    <_>
      0. 0. 0. 0. 1. 0. 5. 2. 0. 0. 0. 0. 0. 0. 0. 0. 0. 0. 0. 0.</_>
    <_>
      0. 0. 0. 0. 0. 1. 5. 1. 0. 0. 0. 0. 0. 0. 0. 0. 0. 0. 0. 0.</_>
    <_>
      0. 0. 0. 0. 0. 1. 7. 0. 0. 1. 0. 0. 0. 0. 0. 0. 0. 0. 0. 0.</_>
    <_>
      0. 0. 0. 0. 1. 1. 7. 1. 0. 2. 0. 0. 0. 0. 0. 0. 0. 0. 0. 0.</_>
    <_>
      0. 0. 1. 0. 0. 0. 7. 0. 0. 2. 0. 0. 0. 0. 0. 0. 0. 0. 0. 0.</_>
    <_>
      0. 0. 1. 0. 0. 0. 8. 2. 0. 2. 0. 0. 0. 0. 0. 0. 0. 0. 0. 0.</_>
    <_>
      1. 0. 0. 0. 4. 1. 3. 1. 1. 2. 0. 0. 0. 0. 0. 0. 0. 0. 0. 0.</_>
    <_>
      1. 0. 2. 0. 1. 0. 4. 0. 1. 3. 0. 1. 0. 0. 0. 0. 0. 0. 0. 0.</_>
    <_>
      1. 0. 2. 0. 1. 0. 2. 0. 2. 3. 0. 0. 0. 0. 0. 0. 0. 0. 0. 0.</_>
    <_>
      3. 0. 1. 0. 1. 0. 3. 0. 2. 3. 0. 0. 0. 0. 0. 0. 0. 0. 0. 0.</_>
    <_>
      1. 0. 2. 0. 0. 0. 2. 0. 1. 3. 0. 0. 0. 0. 0. 0. 0. 0. 0. 0.</_>
    <_>
      0. 0. 4. 0. 1. 0. 1. 0. 1. 3. 0. 0. 0. 0. 0. 0. 0. 0. 0. 0.</_>
    <_>
      1. 0. 5. 0. 0. 0. 1. 0. 2. 3. 0. 0. 0. 0. 0. 0. 0. 0. 0. 0.</_>
    <_>
      1. 0. 5. 0. 0. 0. 0. 0. 1. 3. 0. 0. 0. 0. 0. 0. 0. 0. 0. 0.</_>
    <_>
      0. 0. 3. 0. 1. 0. 1. 0. 1. 3. 0. 0. 0. 0. 0. 0. 0. 0. 0. 0.</_>
    <_>
      0. 0. 3. 0. 0. 0. 0. 0. 1. 3. 0. 0. 0. 0. 0. 0. 0. 0. 0. 0.</_>
    <_>
      0. 0. 2. 0. 0. 0. 0. 0. 2. 2. 0. 0. 0. 0. 0. 0. 0. 0. 0. 0.</_>
    <_>
      0. 0. 0. 0. 0. 0. 0. 1. 2. 3. 0. 0. 0. 0. 0. 0. 0. 0. 0. 0.</_>
    <_>
      0. 0. 1. 0. 0. 0. 0. 1. 2. 3. 0. 0. 0. 0. 0. 0. 0. 0. 0. 0.</_>
    <_>
      0. 0. 2. 0. 0. 0. 0. 1. 2. 3. 0. 0. 0. 0. 0. 0. 0. 0. 0. 0.</_>
    <_>
      0. 0. 1. 0. 0. 0. 0. 0. 2. 3. 0. 0. 0. 0. 0. 0. 0. 0. 0. 0.</_>
    <_>
      0. 0. 0. 0. 0. 0. 0. 1. 2. 2. 0. 0. 0. 0. 0. 0. 0. 0. 0. 0.</_>
    <_>
      0. 0. 0. 0. 0. 0. 1. 2. 1. 1. 0. 0. 0. 0. 0. 0. 0. 0. 0. 0.</_>
    <_>
      0. 0. 0. 0. 0. 0. 3. 2. 0. 1. 0. 0. 0. 0. 0. 0. 0. 0. 0. 0.</_>
    <_>
      0. 0. 0. 0. 0. 0. 2. 2. 0. 1. 0. 0. 0. 0. 0. 0. 0. 0. 0. 0.</_>
    <_>
      0. 0. 0. 0. 0. 0. 3. 2. 0. 1. 0. 0. 0. 0. 0. 0. 0. 1. 0. 0.</_>
    <_>
      0. 0. 0. 0. 0. 0. 3. 2. 0. 1. 0. 0. 0. 0. 0. 0. 0. 1. 0. 0.</_>
    <_>
      0. 0. 0. 0. 0. 0. 3. 2. 0. 1. 0. 0. 0. 0. 0. 0. 0. 1. 0. 0.</_>
    <_>
      0. 0. 0. 0. 0. 0. 2. 3. 0. 1. 0. 0. 0. 0. 0. 0. 0. 1. 0. 0.</_>
    <_>
      0. 0. 0. 0. 0. 0. 3. 4. 0. 0. 0. 0. 0. 0. 0. 0. 0. 1. 0. 0.</_>
    <_>
      0. 0. 0. 0. 0. 0. 2. 3. 0. 0. 0. 0. 0. 0. 0. 0. 0. 1. 0. 0.</_>
    <_>
      0. 0. 0. 0. 0. 0. 2. 4. 0. 0. 0. 0. 0. 0. 0. 1. 0. 0. 0. 0.</_>
    <_>
      0. 0. 0. 0. 0. 0. 3. 4. 0. 0. 0. 0. 0. 0. 0. 1. 0. 0. 0. 0.</_>
    <_>
      0. 0. 0. 0. 0. 0. 3. 3. 0. 0. 0. 0. 0. 0. 0. 1. 0. 0. 0. 0.</_>
    <_>
      0. 0. 0. 0. 1. 1. 1. 2. 0. 0. 0. 0. 0. 1. 0. 0. 0. 0. 0. 0.</_>
    <_>
      0. 0. 0. 0. 1. 1. 1. 2. 0. 0. 0. 0. 0. 1. 0. 0. 0. 1. 0. 0.</_>
    <_>
      0. 0. 0. 0. 1. 1. 2. 2. 0. 0. 0. 0. 0. 1. 0. 0. 0. 1. 0. 0.</_>
    <_>
      0. 0. 1. 1. 0. 0. 1. 2. 0. 0. 0. 1. 0. 1. 0. 0. 0. 0. 0. 0.</_>
    <_>
      0. 0. 1. 1. 0. 0. 1. 2. 0. 0. 0. 1. 0. 1. 0. 0. 0. 0. 0. 0.</_>
    <_>
      0. 0. 1. 1. 0. 0. 1. 2. 0. 0. 0. 1. 0. 1. 0. 0. 0. 0. 0. 0.</_>
    <_>
      0. 0. 1. 1. 0. 0. 1. 2. 0. 0. 0. 1. 0. 1. 0. 0. 0. 0. 0. 0.</_>
    <_>
      0. 0. 1. 1. 0. 0. 1. 2. 0. 0. 0. 1. 0. 1. 0. 0. 0. 0. 0. 0.</_>
    <_>
      0. 0. 1. 1. 0. 0. 1. 2. 0. 0. 0. 1. 0. 1. 0. 0. 0. 0. 0. 0.</_>
    <_>
      0. 0. 1. 1. 1. 1. 2. 1. 1. 0. 0. 1. 0. 0. 0. 1. 0. 0. 0. 0.</_>
    <_>
      0. 0. 1. 1. 2. 1. 2. 1. 1. 0. 0. 1. 0. 0. 0. 1. 0. 0. 0. 0.</_>
    <_>
      0. 0. 1. 1. 1. 1. 4. 1. 0. 0. 0. 1. 0. 0. 0. 1. 0. 0. 0. 0.</_>
    <_>
      0. 0. 1. 1. 1. 1. 3. 1. 1. 0. 0. 1. 0. 0. 0. 1. 0. 0. 0. 1.</_>
    <_>
      1. 0. 2. 0. 0. 2. 3. 1. 3. 0. 0. 1. 0. 0. 0. 1. 0. 0. 0. 1.</_>
    <_>
      2. 0. 1. 0. 0. 2. 4. 0. 3. 0. 0. 1. 0. 0. 0. 1. 0. 0. 0. 1.</_>
    <_>
      2. 0. 2. 1. 0. 1. 5. 0. 2. 0. 0. 1. 0. 0. 0. 1. 0. 0. 0. 1.</_>
    <_>
      2. 0. 2. 0. 0. 2. 2. 1. 2. 0. 0. 1. 0. 0. 0. 1. 0. 0. 0. 1.</_>
    <_>
      2. 0. 2. 1. 0. 1. 3. 1. 2. 0. 0. 1. 0. 0. 0. 1. 0. 0. 0. 1.</_>
    <_>
      0. 0. 2. 1. 2. 1. 4. 1. 2. 0. 0. 1. 0. 0. 0. 0. 0. 1. 0. 1.</_>
    <_>
      1. 0. 3. 0. 0. 3. 4. 1. 1. 0. 0. 0. 0. 0. 0. 0. 0. 0. 0. 1.</_>
    <_>
      1. 0. 4. 0. 0. 3. 4. 1. 2. 0. 0. 0. 0. 0. 0. 0. 0. 0. 0. 1.</_>
    <_>
      1. 0. 2. 0. 0. 3. 5. 1. 2. 0. 0. 0. 0. 0. 0. 0. 0. 1. 0. 0.</_>
    <_>
      1. 0. 2. 0. 2. 3. 1. 1. 3. 0. 0. 0. 0. 0. 0. 0. 0. 1. 0. 0.</_>
    <_>
      1. 0. 5. 0. 1. 3. 2. 1. 2. 0. 0. 0. 0. 0. 0. 0. 0. 1. 0. 0.</_>
    <_>
      1. 0. 2. 1. 2. 2. 4. 0. 1. 0. 0. 0. 0. 0. 0. 0. 0. 1. 0. 0.</_>
    <_>
      2. 0. 3. 1. 0. 2. 4. 1. 1. 0. 0. 0. 0. 0. 0. 0. 0. 1. 0. 0.</_>
    <_>
      3. 0. 1. 1. 1. 1. 4. 1. 1. 0. 0. 1. 0. 0. 0. 0. 0. 1. 0. 0.</_>
    <_>
      2. 1. 2. 0. 0. 1. 6. 0. 0. 0. 0. 1. 0. 0. 0. 0. 0. 0. 0. 1.</_>
    <_>
      0. 0. 0. 0. 5. 0. 1. 0. 1. 0. 0. 0. 0. 0. 0. 1. 0. 0. 0. 1.</_>
    <_>
      0. 0. 0. 0. 5. 0. 2. 0. 0. 0. 0. 0. 0. 0. 0. 1. 0. 0. 0. 1.</_>
    <_>
      0. 0. 0. 0. 5. 0. 2. 0. 0. 0. 0. 0. 0. 0. 0. 1. 0. 0. 1. 1.</_>
    <_>
      1. 0. 0. 0. 6. 0. 1. 0. 0. 0. 0. 0. 0. 1. 0. 0. 0. 0. 1. 1.</_>
    <_>
      0. 0. 0. 0. 4. 0. 1. 0. 0. 0. 0. 0. 0. 1. 0. 0. 0. 0. 0. 1.</_>
    <_>
      0. 0. 0. 0. 1. 0. 0. 0. 1. 0. 0. 1. 0. 0. 0. 0. 0. 0. 0. 1.</_>
    <_>
      0. 0. 1. 0. 2. 0. 1. 0. 0. 0. 0. 0. 0. 0. 0. 0. 0. 0. 0. 1.</_>
    <_>
      0. 0. 1. 0. 3. 0. 1. 0. 0. 0. 1. 0. 0. 0. 0. 0. 0. 0. 0. 1.</_>
    <_>
      0. 0. 2. 0. 1. 0. 0. 0. 1. 0. 1. 0. 0. 0. 0. 0. 0. 0. 0. 1.</_>
    <_>
      0. 0. 1. 0. 1. 0. 0. 0. 1. 0. 1. 0. 0. 0. 0. 0. 0. 0. 0. 1.</_>
    <_>
      0. 0. 1. 0. 1. 0. 0. 0. 1. 0. 0. 0. 0. 0. 1. 0. 0. 0. 0. 1.</_>
    <_>
      0. 0. 1. 0. 1. 0. 0. 0. 1. 0. 0. 0. 0. 0. 1. 0. 0. 0. 0. 1.</_>
    <_>
      0. 0. 0. 0. 1. 0. 0. 0. 1. 0. 0. 0. 1. 0. 0. 0. 0. 0. 0. 1.</_>
    <_>
      0. 0. 0. 0. 1. 0. 0. 0. 1. 0. 0. 0. 0. 0. 1. 0. 0. 0. 0. 0.</_>
    <_>
      0. 0. 0. 0. 2. 0. 0. 0. 1. 0. 0. 0. 0. 0. 1. 0. 0. 0. 0. 0.</_>
    <_>
      0. 0. 0. 0. 3. 0. 1. 0. 0. 0. 0. 0. 0. 0. 0. 0. 1. 0. 0. 0.</_>
    <_>
      0. 0. 0. 0. 3. 0. 1. 0. 0. 0. 0. 0. 0. 0. 0. 0. 1. 0. 0. 0.</_>
    <_>
      0. 0. 0. 0. 2. 0. 1. 0. 0. 0. 0. 0. 0. 0. 0. 0. 0. 0. 1. 0.</_>
    <_>
      0. 0. 0. 0. 2. 0. 1. 0. 0. 0. 0. 0. 0. 0. 0. 0. 0. 0. 0. 0.</_>
    <_>
      0. 0. 0. 0. 3. 0. 5. 0. 4. 0. 0. 0. 0. 0. 0. 0. 0. 0. 0. 0.</_>
    <_>
      0. 0. 0. 0. 3. 0. 7. 0. 3. 0. 0. 0. 0. 0. 0. 0. 0. 0. 0. 0.</_>
    <_>
      0. 0. 0. 0. 5. 0. 7. 0. 3. 0. 0. 0. 0. 0. 0. 0. 0. 0. 0. 0.</_>
    <_>
      0. 0. 0. 0. 7. 0. 3. 0. 3. 0. 0. 0. 0. 0. 0. 0. 0. 0. 0. 0.</_>
    <_>
      0. 0. 0. 0. 5. 0. 3. 0. 2. 0. 0. 0. 0. 0. 0. 0. 0. 0. 0. 1.</_>
    <_>
      0. 0. 0. 0. 6. 0. 5. 0. 2. 0. 0. 0. 0. 0. 0. 0. 0. 1. 0. 0.</_>
    <_>
      0. 0. 0. 0. 5. 0. 0. 0. 4. 0. 0. 0. 0. 0. 0. 1. 0. 0. 0. 0.</_>
    <_>
      0. 0. 0. 0. 7. 0. 5. 0. 3. 0. 0. 0. 0. 0. 0. 1. 0. 0. 0. 0.</_>
    <_>
      0. 0. 0. 0. 6. 0. 3. 0. 3. 0. 0. 0. 0. 1. 0. 0. 0. 0. 0. 0.</_>
    <_>
      0. 0. 0. 0. 6. 0. 2. 0. 3. 0. 0. 0. 0. 1. 0. 0. 0. 0. 0. 1.</_>
    <_>
      0. 0. 0. 0. 6. 0. 3. 0. 3. 0. 0. 0. 0. 1. 0. 0. 0. 0. 0. 1.</_>
    <_>
      0. 0. 0. 0. 6. 0. 3. 0. 4. 0. 0. 0. 0. 1. 0. 0. 0. 1. 0. 0.</_>
    <_>
      0. 0. 0. 0. 4. 0. 5. 0. 5. 0. 0. 1. 0. 0. 0. 0. 0. 1. 1. 0.</_>
    <_>
      0. 0. 0. 0. 5. 0. 2. 0. 3. 0. 0. 1. 0. 0. 0. 0. 0. 1. 0. 0.</_>
    <_>
      0. 0. 0. 0. 3. 0. 5. 0. 5. 0. 0. 1. 0. 0. 0. 0. 0. 1. 0. 0.</_>
    <_>
      0. 0. 0. 0. 6. 0. 6. 0. 5. 0. 0. 0. 0. 1. 0. 0. 0. 1. 0. 0.</_>
    <_>
      0. 0. 0. 0. 6. 0. 4. 0. 4. 0. 0. 0. 0. 0. 0. 1. 0. 1. 0. 0.</_>
    <_>
      0. 0. 0. 0. 4. 0. 9. 0. 3. 0. 0. 0. 0. 0. 0. 0. 0. 0. 0. 1.</_>
    <_>
      0. 0. 0. 0. 6. 0. 7. 0. 3. 0. 0. 0. 0. 0. 0. 0. 0. 0. 0. 1.</_>
    <_>
      0. 0. 0. 0. 8. 0. 4. 0. 2. 0. 0. 0. 0. 0. 0. 0. 0. 0. 0. 0.</_>
    <_>
      0. 0. 0. 0. 5. 0. 8. 0. 2. 0. 0. 0. 0. 0. 0. 0. 0. 0. 0. 0.</_>
    <_>
      0. 0. 0. 0. 6. 0. 7. 0. 0. 0. 0. 0. 0. 0. 0. 0. 0. 0. 0. 0.</_>
    <_>
      0. 0. 0. 0. 4. 0. 3. 0. 0. 0. 0. 0. 0. 0. 0. 0. 0. 0. 0. 0.</_>
    <_>
      0. 0. 0. 0. 6. 0. 3. 0. 0. 0. 0. 0. 0. 0. 0. 0. 0. 0. 0. 0.</_>
    <_>
      0. 0. 0. 0. 5. 0. 1. 0. 0. 0. 0. 0. 0. 0. 0. 0. 0. 0. 0. 0.</_>
    <_>
      0. 0. 0. 0. 6. 0. 1. 0. 0. 0. 0. 0. 0. 0. 0. 0. 0. 0. 0. 0.</_>
    <_>
      0. 0. 0. 0. 7. 0. 2. 0. 0. 0. 0. 0. 0. 0. 0. 0. 0. 0. 0. 0.</_>
    <_>
      0. 0. 0. 0. 3. 0. 2. 0. 0. 0. 0. 0. 0. 0. 0. 0. 0. 0. 0. 0.</_>
    <_>
      0. 0. 0. 0. 5. 0. 2. 0. 0. 0. 0. 0. 0. 0. 0. 0. 0. 0. 0. 0.</_>
    <_>
      0. 0. 1. 0. 5. 0. 2. 0. 1. 0. 0. 0. 0. 0. 0. 0. 0. 0. 0. 1.</_>
    <_>
      0. 0. 0. 0. 5. 0. 2. 0. 1. 0. 0. 0. 0. 0. 0. 0. 0. 0. 0. 1.</_>
    <_>
      0. 0. 0. 0. 4. 0. 1. 0. 1. 0. 0. 0. 0. 0. 0. 0. 0. 0. 0. 1.</_>
    <_>
      0. 0. 0. 0. 4. 0. 2. 0. 2. 0. 0. 0. 0. 0. 0. 0. 0. 0. 0. 1.</_>
    <_>
      0. 0. 0. 0. 3. 0. 2. 0. 2. 0. 0. 0. 0. 0. 0. 0. 0. 0. 0. 1.</_>
    <_>
      0. 0. 0. 0. 0. 0. 3. 0. 1. 0. 0. 0. 0. 0. 0. 1. 0. 0. 0. 0.</_>
    <_>
      0. 0. 0. 0. 0. 0. 3. 0. 1. 0. 0. 0. 0. 0. 0. 0. 0. 0. 0. 0.</_>
    <_>
      0. 0. 0. 0. 0. 0. 2. 0. 1. 0. 0. 0. 0. 0. 1. 0. 0. 0. 0. 0.</_>
    <_>
      0. 0. 0. 0. 0. 0. 3. 0. 3. 0. 0. 0. 0. 0. 0. 0. 0. 0. 0. 0.</_>
    <_>
      0. 0. 0. 0. 0. 0. 2. 0. 3. 0. 0. 0. 0. 0. 0. 0. 0. 0. 0. 0.</_>
    <_>
      0. 0. 0. 0. 0. 0. 2. 1. 2. 0. 0. 0. 0. 0. 0. 0. 0. 0. 0. 0.</_>
    <_>
      0. 0. 0. 0. 0. 0. 4. 0. 2. 0. 0. 0. 0. 0. 0. 0. 0. 0. 0. 0.</_>
    <_>
      0. 0. 0. 0. 0. 0. 4. 0. 4. 0. 0. 0. 0. 0. 0. 0. 0. 0. 0. 0.</_>
    <_>
      0. 0. 0. 0. 0. 0. 3. 1. 3. 0. 0. 0. 0. 0. 0. 0. 0. 0. 0. 0.</_>
    <_>
      0. 0. 0. 0. 0. 0. 2. 1. 4. 0. 0. 0. 0. 0. 0. 0. 0. 0. 1. 0.</_>
    <_>
      0. 0. 0. 0. 0. 0. 2. 1. 1. 0. 0. 0. 0. 0. 0. 0. 1. 0. 0. 0.</_>
    <_>
      0. 0. 0. 0. 0. 0. 4. 0. 3. 0. 0. 0. 0. 0. 0. 0. 1. 0. 0. 0.</_>
    <_>
      0. 0. 0. 0. 0. 0. 4. 0. 1. 0. 0. 0. 0. 0. 0. 1. 0. 0. 1. 0.</_>
    <_>
      0. 0. 0. 0. 0. 0. 5. 0. 2. 0. 0. 0. 0. 0. 0. 0. 0. 0. 1. 0.</_>
    <_>
      0. 0. 0. 0. 0. 0. 6. 0. 2. 0. 0. 0. 0. 0. 0. 0. 0. 0. 1. 0.</_>
    <_>
      0. 0. 0. 0. 0. 0. 4. 0. 1. 0. 0. 0. 0. 0. 0. 0. 0. 0. 0. 0.</_>
    <_>
      0. 0. 0. 0. 0. 0. 5. 0. 2. 0. 0. 0. 0. 0. 0. 0. 0. 0. 0. 0.</_>
    <_>
      0. 0. 0. 0. 0. 0. 4. 0. 2. 0. 0. 0. 0. 0. 0. 0. 0. 0. 0. 0.</_>
    <_>
      0. 0. 0. 0. 0. 0. 5. 0. 1. 0. 0. 0. 0. 0. 0. 0. 0. 0. 0. 0.</_>
    <_>
      0. 0. 0. 0. 0. 0. 5. 0. 2. 0. 0. 0. 0. 0. 0. 0. 0. 0. 0. 1.</_>
    <_>
      0. 0. 0. 0. 1. 0. 4. 0. 1. 0. 0. 0. 0. 0. 0. 1. 0. 0. 0. 0.</_>
    <_>
      0. 0. 0. 0. 0. 0. 6. 0. 1. 0. 0. 1. 0. 0. 0. 0. 0. 0. 0. 0.</_>
    <_>
      0. 0. 0. 0. 2. 0. 6. 0. 3. 0. 0. 1. 0. 0. 0. 0. 0. 0. 0. 0.</_>
    <_>
      0. 0. 0. 0. 0. 0. 6. 0. 2. 0. 0. 0. 0. 1. 0. 0. 0. 0. 0. 1.</_>
    <_>
      0. 0. 0. 0. 2. 0. 6. 0. 4. 0. 0. 0. 0. 1. 0. 0. 0. 0. 0. 1.</_>
    <_>
      0. 0. 0. 0. 3. 0. 7. 0. 3. 0. 0. 0. 0. 1. 0. 0. 0. 0. 0. 1.</_>
    <_>
      0. 0. 0. 0. 0. 0. 7. 0. 4. 0. 0. 0. 0. 0. 0. 1. 0. 0. 0. 1.</_>
    <_>
      0. 0. 0. 0. 1. 0. 7. 0. 4. 0. 0. 0. 0. 0. 0. 1. 0. 0. 0. 1.</_>
    <_>
      0. 0. 0. 0. 1. 0. 6. 0. 3. 0. 0. 0. 0. 0. 0. 1. 0. 0. 0. 1.</_>
    <_>
      0. 0. 0. 0. 1. 0. 5. 0. 5. 0. 0. 0. 0. 0. 0. 0. 0. 0. 0. 1.</_>
    <_>
      0. 0. 0. 0. 2. 0. 5. 0. 4. 0. 0. 0. 0. 0. 0. 0. 0. 0. 0. 1.</_>
    <_>
      0. 0. 0. 0. 2. 0. 5. 0. 5. 0. 0. 0. 0. 0. 0. 0. 0. 0. 0. 1.</_>
    <_>
      0. 0. 0. 0. 3. 0. 6. 0. 4. 0. 0. 0. 0. 0. 0. 0. 0. 1. 0. 0.</_>
    <_>
      0. 0. 0. 0. 2. 0. 7. 0. 5. 0. 0. 0. 0. 0. 0. 0. 0. 1. 0. 0.</_>
    <_>
      0. 0. 0. 0. 4. 0. 4. 0. 6. 0. 0. 0. 0. 0. 0. 0. 0. 1. 0. 1.</_>
    <_>
      0. 0. 0. 0. 4. 0. 4. 0. 7. 0. 0. 0. 0. 1. 0. 0. 0. 1. 0. 0.</_>
    <_>
      0. 0. 0. 0. 4. 0. 6. 0. 5. 0. 0. 1. 0. 0. 0. 1. 0. 0. 0. 0.</_>
    <_>
      0. 0. 0. 0. 3. 0. 7. 0. 5. 0. 0. 1. 0. 0. 0. 1. 0. 0. 0. 0.</_>
    <_>
      0. 0. 0. 0. 2. 0. 6. 0. 5. 0. 0. 1. 0. 0. 0. 1. 0. 0. 0. 0.</_>
    <_>
      0. 0. 0. 0. 3. 0. 6. 0. 6. 0. 0. 1. 0. 0. 0. 1. 0. 0. 0. 0.</_>
    <_>
      0. 0. 0. 0. 4. 0. 7. 0. 4. 0. 0. 1. 0. 0. 0. 1. 0. 0. 0. 0.</_>
    <_>
      0. 0. 0. 0. 4. 0. 8. 0. 3. 0. 0. 1. 0. 0. 0. 1. 0. 0. 1. 0.</_>
    <_>
      0. 0. 0. 0. 4. 0. 8. 0. 3. 0. 0. 0. 0. 1. 0. 0. 0. 0. 0. 0.</_>
    <_>
      0. 0. 0. 0. 5. 0. 7. 0. 3. 0. 0. 0. 0. 1. 0. 0. 0. 0. 0. 0.</_>
    <_>
      0. 0. 0. 0. 4. 0. 6. 0. 3. 0. 0. 0. 0. 0. 0. 1. 0. 0. 0. 0.</_>
    <_>
      0. 0. 0. 0. 4. 0. 7. 0. 3. 0. 0. 0. 0. 0. 0. 1. 0. 0. 0. 0.</_>
    <_>
      0. 0. 0. 0. 0. 0. 0. 0. 0. 0. 0. 0. 0. 0. 0. 0. 0. 0. 0. 1.</_>
    <_>
      0. 0. 0. 0. 0. 0. 0. 0. 0. 0. 0. 0. 0. 0. 0. 0. 0. 0. 0. 1.</_>
    <_>
      0. 0. 0. 0. 0. 0. 0. 0. 0. 0. 0. 0. 0. 0. 0. 0. 0. 0. 0. 1.</_>
    <_>
      0. 0. 0. 0. 0. 0. 1. 0. 0. 0. 0. 0. 0. 0. 0. 1. 0. 0. 0. 2.</_>
    <_>
      0. 0. 0. 1. 0. 0. 0. 0. 0. 0. 0. 0. 0. 0. 0. 0. 0. 0. 0. 1.</_>
    <_>
      0. 0. 0. 0. 0. 0. 0. 0. 0. 0. 0. 0. 0. 1. 0. 0. 0. 0. 0. 1.</_>
    <_>
      0. 0. 0. 1. 0. 1. 0. 0. 0. 0. 0. 0. 0. 0. 0. 0. 0. 0. 0. 1.</_>
    <_>
      0. 0. 0. 1. 1. 0. 0. 1. 0. 0. 0. 0. 0. 0. 0. 0. 0. 0. 0. 1.</_>
    <_>
      0. 1. 0. 0. 0. 0. 0. 0. 0. 0. 0. 0. 0. 0. 0. 0. 0. 0. 0. 0.</_>
    <_>
      0. 0. 0. 0. 0. 0. 0. 0. 0. 0. 0. 0. 0. 0. 0. 0. 0. 0. 0. 0.</_>
    <_>
      0. 0. 0. 0. 0. 0. 0. 0. 0. 0. 0. 0. 0. 0. 0. 1. 0. 0. 0. 0.</_>
    <_>
      0. 0. 0. 0. 0. 0. 0. 0. 0. 0. 0. 0. 0. 0. 0. 0. 0. 0. 0. 1.</_>
    <_>
      0. 0. 0. 0. 0. 0. 0. 0. 0. 0. 0. 0. 0. 0. 0. 0. 0. 1. 0. 0.</_>
    <_>
      0. 0. 0. 0. 0. 0. 0. 0. 0. 0. 0. 0. 0. 0. 0. 1. 0. 0. 0. 0.</_>
    <_>
      0. 0. 0. 0. 0. 0. 0. 0. 0. 0. 0. 0. 0. 0. 0. 1. 0. 0. 0. 0.</_>
    <_>
      0. 0. 0. 0. 0. 0. 0. 0. 0. 0. 0. 0. 0. 0. 0. 1. 0. 0. 0. 0.</_>
    <_>
      0. 0. 0. 0. 0. 0. 0. 0. 0. 0. 0. 0. 0. 0. 0. 1. 0. 0. 0. 0.</_>
    <_>
      0. 0. 0. 0. 0. 0. 0. 0. 0. 0. 0. 0. 0. 0. 0. 1. 0. 0. 0. 0.</_>
    <_>
      0. 0. 0. 0. 0. 0. 0. 0. 0. 0. 0. 1. 0. 0. 0. 0. 0. 0. 0. 0.</_>
    <_>
      0. 0. 0. 0. 0. 0. 0. 0. 0. 0. 0. 1. 0. 0. 0. 0. 0. 0. 0. 0.</_>
    <_>
      0. 0. 0. 0. 0. 0. 0. 0. 0. 0. 0. 1. 0. 0. 0. 0. 0. 0. 0. 0.</_>
    <_>
      0. 0. 0. 0. 0. 0. 0. 0. 0. 0. 0. 1. 0. 0. 0. 0. 0. 0. 0. 0.</_>
    <_>
      0. 0. 0. 0. 0. 0. 0. 0. 0. 0. 1. 0. 0. 0. 0. 0. 0. 0. 0. 0.</_>
    <_>
      0. 0. 0. 0. 0. 0. 0. 0. 0. 0. 0. 0. 0. 0. 0. 0. 0. 0. 0. 0.</_>
    <_>
      0. 0. 0. 0. 0. 0. 0. 0. 0. 0. 0. 0. 0. 0. 0. 0. 0. 0. 0. 0.</_>
    <_>
      0. 0. 0. 0. 5. 0. 0. 0. 1. 0. 0. 0. 0. 0. 0. 0. 0. 0. 0. 0.</_>
    <_>
      0. 0. 1. 0. 2. 0. 0. 0. 1. 0. 0. 0. 0. 0. 0. 0. 0. 0. 0. 0.</_>
    <_>
      0. 0. 1. 0. 2. 0. 0. 0. 1. 0. 0. 0. 0. 0. 0. 0. 0. 0. 0. 0.</_>
    <_>
      0. 0. 0. 0. 2. 0. 0. 0. 1. 0. 0. 0. 0. 0. 0. 0. 0. 0. 0. 0.</_>
    <_>
      0. 0. 0. 0. 4. 0. 1. 0. 0. 0. 0. 0. 0. 0. 0. 0. 1. 0. 0. 0.</_>
    <_>
      0. 0. 1. 0. 3. 0. 1. 0. 0. 0. 0. 0. 0. 0. 0. 0. 1. 0. 0. 0.</_>
    <_>
      0. 0. 1. 0. 2. 0. 1. 0. 0. 0. 0. 0. 0. 0. 0. 0. 1. 0. 0. 0.</_>
    <_>
      0. 0. 1. 0. 2. 0. 1. 0. 0. 0. 0. 0. 0. 0. 0. 0. 1. 0. 0. 0.</_>
    <_>
      0. 0. 1. 0. 2. 0. 1. 0. 0. 0. 0. 0. 0. 0. 1. 0. 0. 0. 0. 0.</_>
    <_>
      0. 0. 0. 0. 3. 0. 1. 0. 0. 0. 0. 0. 0. 0. 0. 0. 0. 0. 0. 0.</_>
    <_>
      0. 0. 0. 0. 4. 0. 1. 0. 0. 0. 0. 0. 0. 0. 0. 0. 0. 0. 0. 0.</_>
    <_>
      0. 0. 0. 0. 5. 0. 0. 0. 0. 0. 0. 0. 0. 0. 0. 0. 0. 0. 0. 0.</_>
    <_>
      0. 0. 0. 0. 4. 0. 0. 0. 0. 0. 0. 0. 0. 0. 0. 0. 0. 0. 0. 0.</_>
    <_>
      0. 0. 0. 0. 3. 0. 0. 0. 0. 0. 0. 0. 0. 0. 0. 0. 0. 0. 0. 0.</_>
    <_>
      0. 0. 0. 0. 2. 0. 0. 0. 0. 0. 0. 0. 0. 0. 0. 0. 0. 0. 0. 0.</_>
    <_>
      0. 0. 0. 0. 1. 0. 0. 0. 0. 0. 0. 0. 0. 0. 0. 0. 0. 0. 0. 0.</_>
    <_>
      0. 0. 0. 0. 1. 0. 0. 0. 1. 0. 0. 0. 0. 0. 0. 0. 0. 0. 0. 0.</_>
    <_>
      0. 0. 0. 0. 1. 0. 0. 0. 1. 0. 0. 0. 0. 0. 0. 0. 0. 0. 0. 0.</_>
    <_>
      0. 0. 0. 0. 0. 0. 1. 0. 0. 0. 0. 0. 0. 0. 0. 0. 0. 0. 0. 1.</_>
    <_>
      0. 0. 0. 0. 0. 0. 1. 0. 0. 0. 0. 0. 0. 0. 0. 0. 0. 0. 0. 1.</_>
    <_>
      0. 0. 0. 0. 0. 0. 1. 0. 0. 0. 0. 0. 0. 0. 0. 0. 0. 0. 0. 1.</_>
    <_>
      0. 0. 0. 0. 0. 0. 1. 0. 0. 0. 0. 0. 0. 0. 0. 0. 0. 0. 0. 1.</_>
    <_>
      0. 0. 0. 0. 0. 0. 2. 0. 0. 0. 0. 0. 0. 0. 0. 0. 0. 0. 0. 0.</_>
    <_>
      0. 0. 1. 0. 3. 0. 2. 0. 1. 0. 0. 0. 0. 1. 0. 0. 0. 0. 0. 2.</_>
    <_>
      0. 0. 2. 0. 2. 0. 0. 0. 1. 0. 0. 0. 0. 0. 0. 1. 0. 0. 0. 1.</_>
    <_>
      0. 0. 1. 0. 2. 0. 2. 0. 1. 0. 0. 0. 0. 0. 0. 1. 0. 0. 0. 1.</_>
    <_>
      0. 0. 2. 0. 2. 0. 1. 0. 1. 0. 0. 0. 0. 0. 0. 1. 0. 0. 0. 2.</_>
    <_>
      0. 0. 1. 0. 3. 0. 2. 0. 1. 0. 0. 0. 0. 0. 0. 1. 0. 0. 0. 2.</_>
    <_>
      0. 0. 1. 0. 3. 0. 2. 0. 1. 0. 0. 0. 0. 0. 0. 1. 0. 1. 0. 1.</_>
    <_>
      0. 0. 1. 0. 2. 0. 0. 0. 1. 0. 0. 1. 0. 0. 0. 0. 0. 1. 0. 0.</_>
    <_>
      0. 0. 1. 0. 5. 0. 0. 0. 1. 0. 0. 0. 0. 1. 0. 0. 0. 1. 0. 0.</_>
    <_>
      0. 0. 1. 0. 4. 0. 3. 0. 0. 0. 0. 0. 0. 0. 0. 1. 0. 1. 0. 0.</_>
    <_>
      0. 0. 1. 0. 5. 0. 1. 0. 0. 0. 0. 0. 0. 0. 0. 1. 0. 0. 0. 1.</_>
    <_>
      0. 0. 2. 0. 2. 0. 1. 0. 0. 0. 0. 0. 0. 0. 0. 1. 0. 0. 0. 1.</_>
    <_>
      0. 0. 1. 0. 3. 0. 5. 0. 0. 0. 0. 0. 0. 0. 0. 1. 0. 0. 0. 1.</_>
    <_>
      0. 0. 2. 0. 3. 0. 2. 0. 0. 0. 0. 0. 0. 0. 0. 1. 0. 0. 0. 1.</_>
    <_>
      0. 0. 1. 0. 4. 0. 4. 0. 0. 0. 0. 0. 0. 0. 0. 1. 0. 0. 0. 1.</_>
    <_>
      0. 0. 0. 0. 3. 0. 5. 0. 0. 0. 0. 0. 0. 0. 0. 0. 0. 1. 0. 1.</_>
    <_>
      0. 0. 0. 0. 3. 0. 5. 0. 0. 0. 0. 0. 0. 0. 0. 0. 0. 1. 0. 0.</_>
    <_>
      0. 0. 0. 0. 6. 0. 0. 0. 0. 1. 0. 0. 0. 0. 0. 0. 0. 1. 0. 1.</_>
    <_>
      0. 0. 0. 0. 5. 0. 0. 0. 1. 0. 0. 0. 0. 0. 0. 0. 0. 1. 0. 1.</_>
    <_>
      0. 0. 0. 0. 4. 0. 2. 0. 1. 0. 0. 0. 0. 0. 0. 0. 0. 1. 0. 1.</_>
    <_>
      0. 0. 0. 0. 6. 0. 1. 0. 0. 0. 0. 0. 0. 0. 0. 0. 0. 1. 0. 0.</_>
    <_>
      0. 0. 0. 0. 9. 0. 3. 0. 0. 0. 0. 0. 0. 0. 0. 0. 0. 1. 0. 0.</_>
    <_>
      0. 0. 0. 0. 8. 0. 3. 0. 0. 0. 0. 0. 0. 0. 0. 0. 0. 1. 0. 1.</_>
    <_>
      0. 0. 0. 0. 7. 0. 1. 0. 0. 0. 0. 0. 0. 0. 0. 0. 0. 0. 0. 2.</_>
    <_>
      0. 0. 0. 0. 6. 0. 2. 0. 1. 0. 0. 0. 0. 0. 0. 0. 0. 0. 0. 2.</_>
    <_>
      0. 0. 0. 0. 4. 0. 3. 0. 2. 0. 0. 0. 0. 0. 0. 0. 0. 0. 0. 2.</_>
    <_>
      0. 0. 0. 0. 5. 0. 1. 0. 2. 0. 0. 0. 0. 0. 0. 0. 0. 0. 0. 2.</_>
    <_>
      0. 0. 0. 0. 5. 0. 4. 0. 2. 0. 0. 0. 0. 0. 0. 0. 0. 0. 0. 2.</_>
    <_>
      0. 0. 0. 0. 4. 0. 3. 0. 4. 0. 0. 0. 0. 0. 0. 0. 0. 0. 0. 2.</_>
    <_>
      0. 0. 0. 0. 6. 0. 1. 0. 3. 0. 0. 0. 0. 0. 0. 0. 0. 0. 0. 2.</_>
    <_>
      0. 0. 0. 0. 5. 0. 3. 0. 3. 0. 0. 0. 0. 0. 0. 0. 0. 0. 0. 1.</_>
    <_>
      0. 0. 0. 0. 5. 0. 5. 0. 3. 0. 0. 0. 0. 0. 0. 0. 0. 0. 0. 2.</_>
    <_>
      0. 0. 0. 0. 5. 0. 3. 0. 3. 0. 0. 0. 0. 0. 0. 0. 0. 0. 0. 2.</_>
    <_>
      0. 0. 0. 0. 6. 0. 3. 0. 3. 0. 0. 0. 0. 0. 0. 0. 0. 0. 0. 3.</_>
    <_>
      0. 0. 0. 0. 5. 0. 6. 0. 3. 0. 0. 0. 0. 0. 0. 0. 0. 0. 0. 1.</_>
    <_>
      0. 0. 0. 0. 5. 0. 3. 0. 2. 0. 0. 0. 0. 0. 0. 0. 0. 0. 0. 1.</_>
    <_>
      0. 0. 1. 0. 0. 0. 5. 0. 5. 0. 0. 0. 0. 0. 0. 0. 0. 0. 0. 0.</_>
    <_>
      0. 0. 3. 1. 1. 0. 3. 0. 6. 0. 0. 0. 0. 0. 0. 0. 0. 0. 0. 0.</_>
    <_>
      0. 0. 2. 1. 0. 0. 5. 0. 4. 0. 0. 0. 0. 0. 0. 0. 0. 0. 0. 0.</_>
    <_>
      0. 0. 1. 1. 2. 1. 2. 0. 6. 0. 0. 0. 0. 0. 0. 0. 0. 0. 0. 0.</_>
    <_>
      0. 1. 1. 0. 2. 1. 2. 0. 4. 0. 0. 0. 0. 0. 0. 0. 0. 0. 0. 0.</_>
    <_>
      0. 0. 1. 0. 3. 2. 2. 0. 3. 0. 0. 0. 0. 0. 0. 0. 0. 0. 0. 0.</_>
    <_>
      0. 0. 0. 0. 1. 2. 5. 0. 4. 0. 0. 0. 0. 1. 0. 0. 0. 0. 1. 0.</_>
    <_>
      0. 0. 2. 0. 0. 2. 4. 0. 4. 0. 0. 0. 0. 1. 0. 0. 0. 0. 1. 0.</_>
    <_>
      0. 0. 2. 0. 1. 1. 2. 0. 5. 0. 0. 0. 0. 1. 0. 0. 0. 0. 0. 0.</_>
    <_>
      0. 0. 1. 1. 2. 1. 4. 0. 5. 0. 0. 0. 0. 1. 0. 0. 0. 0. 0. 0.</_>
    <_>
      0. 0. 2. 0. 1. 1. 4. 1. 2. 0. 0. 0. 0. 0. 0. 0. 0. 0. 0. 0.</_>
    <_>
      0. 0. 1. 1. 1. 1. 4. 1. 6. 0. 0. 0. 0. 0. 0. 0. 0. 0. 0. 0.</_>
    <_>
      0. 0. 0. 1. 1. 1. 6. 1. 4. 0. 0. 0. 0. 0. 0. 0. 0. 0. 0. 0.</_>
    <_>
      0. 0. 0. 1. 1. 1. 3. 2. 3. 0. 0. 0. 0. 0. 0. 0. 0. 0. 0. 0.</_>
    <_>
      0. 0. 1. 0. 1. 1. 5. 2. 5. 0. 0. 0. 0. 0. 0. 0. 0. 0. 0. 0.</_>
    <_>
      0. 0. 1. 1. 1. 1. 6. 2. 4. 0. 0. 0. 0. 0. 0. 0. 0. 0. 0. 0.</_>
    <_>
      0. 0. 1. 1. 1. 1. 5. 2. 5. 0. 0. 0. 0. 0. 0. 0. 0. 0. 0. 0.</_>
    <_>
      0. 0. 1. 1. 2. 1. 5. 2. 6. 0. 0. 0. 0. 0. 0. 0. 0. 0. 0. 0.</_>
    <_>
      0. 0. 2. 0. 0. 1. 6. 2. 4. 0. 0. 0. 0. 0. 0. 0. 0. 0. 0. 0.</_>
    <_>
      0. 1. 1. 0. 1. 1. 5. 2. 4. 0. 0. 0. 0. 0. 0. 0. 0. 0. 0. 0.</_>
    <_>
      0. 0. 1. 1. 1. 1. 7. 1. 3. 0. 0. 0. 0. 0. 0. 0. 0. 0. 0. 0.</_>
    <_>
      0. 0. 1. 1. 0. 1. 6. 1. 4. 0. 0. 0. 0. 0. 0. 0. 0. 0. 0. 0.</_>
    <_>
      0. 0. 2. 0. 0. 1. 6. 1. 4. 0. 0. 0. 0. 0. 0. 0. 0. 0. 0. 0.</_>
    <_>
      0. 0. 1. 1. 0. 1. 6. 1. 5. 0. 0. 0. 0. 0. 0. 0. 0. 0. 0. 0.</_>
    <_>
      0. 0. 1. 0. 0. 1. 6. 1. 4. 0. 0. 0. 0. 0. 0. 0. 0. 0. 0. 0.</_>
    <_>
      0. 0. 0. 1. 3. 0. 3. 0. 4. 0. 0. 0. 0. 0. 0. 0. 0. 0. 0. 0.</_>
    <_>
      0. 0. 1. 1. 2. 0. 1. 0. 3. 0. 0. 0. 0. 0. 0. 0. 0. 0. 0. 0.</_>
    <_>
      0. 0. 1. 1. 4. 0. 1. 0. 4. 0. 0. 0. 0. 0. 0. 0. 0. 0. 0. 0.</_>
    <_>
      0. 0. 1. 0. 3. 0. 2. 0. 2. 0. 0. 0. 0. 0. 0. 0. 0. 0. 0. 0.</_>
    <_>
      0. 0. 2. 0. 2. 0. 1. 0. 3. 0. 0. 0. 0. 0. 0. 0. 0. 0. 0. 0.</_>
    <_>
      0. 0. 2. 0. 4. 1. 2. 0. 3. 0. 0. 0. 0. 0. 0. 0. 0. 0. 0. 0.</_>
    <_>
      0. 0. 2. 1. 5. 0. 2. 0. 2. 0. 0. 0. 0. 0. 0. 0. 0. 0. 0. 0.</_>
    <_>
      0. 0. 1. 0. 4. 0. 2. 0. 2. 0. 0. 0. 0. 0. 0. 0. 0. 0. 0. 0.</_>
    <_>
      0. 0. 2. 0. 4. 0. 3. 0. 3. 0. 0. 0. 0. 0. 0. 0. 0. 0. 0. 0.</_>
    <_>
      0. 0. 1. 0. 3. 0. 4. 0. 2. 0. 0. 0. 0. 0. 0. 0. 0. 0. 0. 0.</_>
    <_>
      0. 0. 1. 0. 2. 0. 5. 0. 2. 0. 0. 0. 0. 0. 0. 0. 0. 0. 0. 0.</_>
    <_>
      0. 0. 3. 0. 2. 0. 3. 0. 2. 0. 0. 0. 0. 0. 0. 0. 0. 0. 0. 0.</_>
    <_>
      0. 0. 1. 0. 0. 0. 3. 0. 3. 0. 0. 0. 0. 0. 0. 0. 0. 0. 0. 0.</_>
    <_>
      0. 0. 1. 0. 2. 0. 3. 0. 4. 0. 0. 0. 0. 0. 0. 0. 0. 0. 0. 0.</_>
    <_>
      0. 0. 1. 0. 1. 0. 5. 0. 3. 0. 0. 0. 0. 0. 0. 0. 0. 0. 0. 0.</_>
    <_>
      0. 0. 1. 0. 0. 0. 6. 0. 4. 0. 0. 0. 0. 0. 0. 0. 0. 0. 0. 0.</_>
    <_>
      0. 0. 2. 0. 0. 0. 4. 0. 5. 0. 0. 0. 0. 0. 0. 0. 0. 0. 0. 0.</_>
    <_>
      0. 0. 1. 0. 1. 0. 5. 0. 5. 0. 0. 0. 0. 0. 0. 0. 0. 0. 0. 0.</_>
    <_>
      0. 0. 1. 0. 3. 0. 4. 0. 3. 0. 0. 0. 0. 0. 0. 0. 0. 0. 0. 0.</_>
    <_>
      0. 0. 2. 0. 0. 0. 5. 0. 3. 0. 0. 0. 0. 0. 0. 0. 0. 0. 0. 0.</_>
    <_>
      0. 0. 2. 0. 2. 0. 2. 0. 5. 0. 0. 0. 0. 0. 0. 0. 0. 0. 0. 0.</_>
    <_>
      0. 0. 2. 0. 0. 0. 4. 0. 3. 0. 0. 0. 0. 0. 0. 0. 0. 0. 0. 0.</_>
    <_>
      0. 0. 1. 0. 0. 0. 5. 0. 5. 0. 0. 0. 0. 0. 0. 0. 0. 0. 0. 0.</_>
    <_>
      0. 0. 1. 1. 1. 0. 4. 0. 5. 0. 0. 0. 0. 0. 0. 0. 0. 0. 0. 0.</_>
    <_>
      1. 0. 3. 0. 0. 0. 6. 0. 2. 0. 0. 0. 0. 0. 0. 0. 0. 0. 0. 0.</_>
    <_>
      2. 0. 1. 1. 3. 0. 7. 0. 2. 0. 0. 0. 0. 0. 0. 0. 0. 0. 0. 0.</_>
    <_>
      2. 0. 2. 0. 1. 1. 6. 0. 1. 0. 0. 0. 0. 0. 0. 0. 0. 0. 0. 0.</_>
    <_>
      0. 1. 2. 1. 1. 0. 7. 0. 2. 0. 0. 0. 0. 0. 0. 0. 0. 0. 0. 0.</_>
    <_>
      0. 0. 2. 1. 0. 0. 6. 0. 2. 0. 0. 1. 0. 0. 0. 0. 0. 0. 0. 0.</_>
    <_>
      1. 0. 2. 1. 0. 0. 7. 0. 2. 0. 0. 0. 0. 0. 0. 0. 0. 0. 0. 0.</_>
    <_>
      0. 0. 2. 0. 1. 0. 5. 0. 2. 0. 0. 1. 0. 0. 0. 0. 0. 0. 0. 0.</_>
    <_>
      2. 0. 1. 0. 0. 1. 6. 0. 2. 0. 0. 0. 0. 0. 0. 0. 0. 0. 0. 0.</_>
    <_>
      1. 2. 2. 0. 0. 0. 6. 0. 2. 0. 0. 0. 0. 0. 0. 0. 0. 0. 0. 0.</_>
    <_>
      1. 1. 1. 0. 1. 0. 7. 0. 2. 0. 0. 0. 0. 1. 0. 0. 0. 0. 0. 0.</_>
    <_>
      1. 1. 1. 0. 1. 0. 7. 0. 2. 0. 0. 1. 0. 0. 0. 0. 0. 0. 0. 0.</_>
    <_>
      1. 0. 1. 0. 1. 0. 8. 0. 2. 0. 0. 1. 0. 0. 0. 0. 0. 0. 0. 0.</_>
    <_>
      0. 1. 1. 0. 3. 0. 5. 0. 2. 0. 0. 1. 0. 0. 0. 0. 0. 0. 0. 0.</_>
    <_>
      1. 0. 1. 1. 3. 0. 7. 0. 2. 0. 0. 1. 0. 0. 0. 0. 0. 0. 0. 0.</_>
    <_>
      0. 0. 2. 1. 1. 0. 7. 0. 2. 0. 0. 1. 0. 0. 0. 0. 0. 0. 0. 0.</_>
    <_>
      0. 0. 3. 1. 1. 0. 4. 0. 2. 0. 0. 1. 0. 0. 0. 0. 0. 0. 0. 0.</_>
    <_>
      0. 0. 2. 1. 3. 0. 6. 0. 2. 0. 0. 1. 0. 0. 0. 0. 0. 0. 0. 0.</_>
    <_>
      0. 1. 1. 1. 4. 0. 5. 0. 2. 0. 0. 0. 0. 0. 0. 0. 0. 0. 0. 0.</_>
    <_>
      0. 1. 3. 1. 2. 0. 3. 0. 2. 0. 0. 0. 0. 0. 0. 0. 0. 0. 0. 0.</_>
    <_>
      0. 1. 1. 1. 3. 0. 6. 0. 2. 0. 0. 0. 0. 0. 0. 0. 0. 0. 0. 0.</_>
    <_>
      0. 1. 1. 1. 5. 0. 3. 0. 2. 0. 0. 0. 0. 0. 0. 0. 0. 0. 0. 0.</_>
    <_>
      0. 1. 1. 1. 5. 0. 2. 0. 2. 0. 0. 0. 0. 0. 0. 0. 0. 0. 0. 0.</_>
    <_>
      0. 1. 3. 1. 1. 0. 5. 0. 2. 0. 0. 0. 0. 0. 0. 0. 0. 0. 0. 0.</_>
    <_>
      1. 0. 2. 1. 2. 0. 4. 0. 2. 0. 0. 0. 0. 0. 0. 0. 0. 0. 0. 0.</_>
    <_>
      1. 0. 2. 1. 1. 0. 4. 0. 2. 0. 0. 0. 0. 0. 0. 0. 0. 0. 0. 0.</_>
    <_>
      1. 0. 1. 1. 3. 0. 4. 0. 2. 0. 0. 0. 0. 0. 0. 0. 0. 0. 0. 0.</_>
    <_>
      0. 0. 2. 1. 1. 0. 7. 0. 2. 0. 0. 0. 0. 0. 0. 0. 0. 0. 0. 0.</_>
    <_>
      0. 0. 3. 1. 2. 0. 4. 0. 3. 0. 0. 0. 0. 0. 0. 0. 0. 0. 0. 0.</_>
    <_>
      0. 0. 1. 1. 3. 0. 7. 0. 2. 0. 0. 0. 0. 0. 0. 0. 0. 0. 0. 0.</_>
    <_>
      1. 0. 3. 1. 1. 0. 4. 0. 2. 0. 0. 0. 0. 0. 0. 0. 0. 0. 0. 0.</_>
    <_>
      1. 0. 4. 1. 0. 0. 5. 0. 3. 0. 0. 0. 0. 0. 0. 0. 0. 0. 0. 0.</_>
    <_>
      2. 0. 1. 1. 1. 0. 7. 0. 2. 0. 0. 0. 0. 0. 0. 0. 0. 0. 0. 0.</_>
    <_>
      1. 1. 0. 0. 0. 0. 0. 0. 0. 0. 0. 0. 0. 0. 0. 0. 0. 0. 0. 0.</_>
    <_>
      0. 1. 0. 1. 0. 0. 0. 0. 0. 0. 0. 0. 0. 0. 0. 0. 0. 0. 0. 0.</_>
    <_>
      0. 1. 0. 0. 0. 1. 0. 0. 0. 0. 0. 0. 0. 0. 0. 0. 0. 0. 0. 0.</_>
    <_>
      0. 1. 0. 0. 0. 0. 0. 1. 0. 0. 0. 0. 0. 0. 0. 0. 0. 0. 0. 0.</_>
    <_>
      0. 1. 0. 0. 0. 0. 0. 0. 0. 1. 0. 0. 0. 0. 0. 0. 0. 0. 0. 0.</_>
    <_>
      1. 1. 1. 0. 0. 0. 0. 0. 0. 0. 0. 0. 0. 0. 0. 0. 0. 0. 0. 0.</_>
    <_>
      0. 1. 1. 0. 0. 0. 0. 0. 0. 1. 0. 0. 0. 0. 0. 0. 0. 0. 0. 0.</_>
    <_>
      0. 1. 0. 0. 1. 0. 0. 1. 0. 0. 0. 0. 0. 0. 0. 0. 0. 0. 0. 0.</_>
    <_>
      0. 1. 0. 0. 0. 1. 0. 1. 0. 0. 0. 0. 0. 0. 0. 0. 0. 0. 0. 0.</_>
    <_>
      0. 1. 0. 0. 0. 0. 0. 1. 1. 0. 0. 0. 0. 0. 0. 0. 0. 0. 0. 0.</_>
    <_>
      0. 1. 0. 0. 0. 5. 5. 5. 5. 1. 0. 0. 0. 0. 0. 0. 0. 0. 0. 0.</_>
    <_>
      0. 1. 0. 0. 0. 0. 5. 5. 5. 0. 0. 0. 0. 0. 0. 0. 0. 0. 0. 0.</_>
    <_>
      0. 1. 0. 1. 0. 0. 3. 1. 1. 5. 0. 0. 0. 0. 0. 0. 0. 0. 0. 0.</_>
    <_>
      0. 1. 0. 0. 1. 0. 2. 1. 3. 4. 0. 0. 0. 0. 0. 0. 0. 0. 0. 0.</_>
    <_>
      0. 1. 0. 0. 0. 1. 1. 5. 1. 0. 0. 0. 0. 0. 0. 0. 0. 0. 0. 0.</_>
    <_>
      0. 1. 0. 0. 0. 0. 5. 1. 1. 0. 0. 0. 0. 0. 0. 0. 0. 0. 0. 0.</_>
    <_>
      0. 1. 0. 0. 0. 0. 5. 0. 0. 1. 0. 0. 0. 0. 0. 0. 0. 0. 0. 0.</_>
    <_>
      0. 0. 1. 3. 3. 1. 0. 0. 0. 0. 0. 1. 0. 0. 0. 0. 0. 1. 0. 0.</_>
    <_>
      0. 1. 1. 2. 5. 2. 1. 0. 0. 0. 0. 1. 0. 0. 0. 0. 0. 1. 0. 0.</_>
    <_>
      0. 0. 1. 2. 6. 1. 1. 0. 0. 0. 0. 1. 0. 0. 0. 0. 0. 1. 0. 0.</_>
    <_>
      0. 0. 1. 3. 6. 0. 1. 0. 0. 0. 0. 1. 0. 0. 0. 0. 0. 1. 0. 0.</_>
    <_>
      0. 0. 1. 3. 5. 1. 1. 0. 0. 0. 0. 0. 0. 1. 0. 0. 0. 1. 0. 0.</_>
    <_>
      0. 0. 2. 2. 6. 1. 2. 0. 0. 0. 0. 0. 0. 1. 0. 1. 0. 0. 0. 0.</_>
    <_>
      0. 0. 2. 2. 7. 1. 2. 0. 0. 0. 0. 0. 0. 1. 0. 1. 0. 0. 0. 0.</_>
    <_>
      0. 0. 1. 2. 7. 1. 2. 0. 0. 0. 0. 0. 0. 1. 0. 1. 0. 0. 0. 0.</_>
    <_>
      0. 0. 1. 2. 6. 1. 2. 0. 0. 0. 0. 0. 0. 1. 0. 1. 0. 0. 0. 0.</_>
    <_>
      0. 0. 2. 2. 4. 1. 1. 0. 0. 0. 0. 0. 0. 1. 0. 0. 0. 0. 0. 0.</_>
    <_>
      0. 0. 1. 2. 8. 1. 2. 0. 0. 0. 0. 0. 0. 1. 0. 0. 0. 0. 0. 0.</_>
    <_>
      0. 0. 1. 2. 8. 1. 3. 0. 0. 0. 0. 0. 0. 1. 0. 0. 0. 0. 0. 0.</_>
    <_>
      0. 0. 3. 2. 6. 1. 2. 0. 0. 0. 0. 0. 0. 1. 0. 0. 0. 0. 0. 0.</_>
    <_>
      0. 0. 2. 3. 5. 1. 0. 0. 0. 0. 0. 0. 0. 0. 0. 0. 0. 0. 0. 0.</_>
    <_>
      0. 0. 2. 3. 5. 1. 2. 0. 0. 0. 0. 0. 0. 0. 0. 0. 0. 0. 0. 0.</_>
    <_>
      0. 0. 2. 3. 8. 0. 2. 0. 0. 0. 0. 0. 0. 0. 0. 0. 0. 0. 0. 0.</_>
    <_>
      0. 0. 1. 3. 7. 0. 2. 0. 0. 0. 0. 0. 0. 0. 0. 0. 0. 0. 0. 0.</_>
    <_>
      0. 0. 2. 3. 5. 0. 2. 0. 0. 0. 0. 0. 0. 0. 0. 0. 0. 0. 0. 0.</_>
    <_>
      0. 0. 0. 2. 9. 0. 3. 0. 1. 0. 0. 0. 0. 0. 0. 0. 0. 0. 0. 0.</_>
    <_>
      0. 1. 1. 1. 9. 1. 2. 0. 1. 0. 0. 0. 0. 0. 0. 0. 0. 0. 0. 0.</_>
    <_>
      0. 1. 1. 2. 7. 0. 0. 0. 1. 0. 0. 0. 0. 0. 0. 0. 0. 0. 0. 0.</_>
    <_>
      0. 1. 0. 1. 8. 1. 1. 0. 1. 0. 0. 0. 0. 0. 0. 0. 0. 0. 0. 0.</_>
    <_>
      0. 1. 1. 2. 5. 0. 0. 0. 0. 0. 0. 0. 0. 0. 0. 0. 0. 0. 0. 0.</_>
    <_>
      0. 1. 1. 2. 6. 0. 1. 0. 0. 0. 0. 0. 0. 0. 0. 0. 0. 0. 0. 0.</_>
    <_>
      0. 1. 1. 2. 8. 0. 0. 0. 1. 0. 0. 0. 0. 0. 0. 0. 0. 0. 0. 0.</_>
    <_>
      0. 1. 1. 1. 5. 1. 0. 0. 0. 0. 0. 0. 0. 0. 0. 0. 0. 0. 0. 0.</_>
    <_>
      0. 1. 1. 2. 7. 0. 1. 0. 0. 0. 0. 0. 0. 0. 0. 0. 0. 0. 0. 0.</_>
    <_>
      0. 1. 1. 2. 6. 0. 0. 0. 0. 0. 0. 0. 0. 0. 0. 0. 0. 0. 0. 0.</_>
    <_>
      0. 1. 0. 2. 9. 0. 0. 0. 0. 0. 0. 0. 0. 0. 0. 0. 0. 0. 0. 0.</_>
    <_>
      0. 1. 0. 0. 9. 2. 1. 0. 1. 0. 0. 0. 0. 0. 0. 0. 0. 0. 0. 0.</_>
    <_>
      0. 1. 0. 0. 9. 1. 2. 1. 0. 0. 0. 0. 0. 0. 0. 0. 0. 0. 0. 0.</_>
    <_>
      0. 1. 0. 0. 8. 1. 2. 1. 0. 0. 0. 0. 0. 0. 0. 0. 0. 0. 0. 0.</_>
    <_>
      0. 1. 0. 0. 7. 1. 1. 1. 0. 0. 0. 0. 0. 0. 0. 0. 0. 0. 0. 0.</_>
    <_>
      0. 1. 0. 0. 5. 1. 3. 0. 0. 0. 0. 0. 0. 0. 0. 0. 0. 0. 0. 0.</_>
    <_>
      0. 0. 0. 1. 7. 0. 0. 0. 0. 0. 0. 0. 0. 0. 0. 0. 0. 0. 0. 0.</_>
    <_>
      0. 0. 0. 1. 3. 0. 2. 0. 0. 0. 0. 0. 0. 0. 0. 0. 0. 0. 0. 0.</_>
    <_>
      0. 0. 0. 1. 5. 0. 2. 0. 0. 0. 0. 0. 0. 0. 0. 0. 0. 0. 0. 0.</_>
    <_>
      0. 0. 0. 1. 1. 0. 4. 0. 0. 0. 0. 0. 0. 0. 0. 0. 0. 0. 0. 0.</_>
    <_>
      0. 0. 0. 1. 0. 0. 4. 0. 0. 0. 0. 0. 0. 0. 0. 0. 0. 0. 0. 0.</_>
    <_>
      0. 0. 0. 0. 0. 0. 5. 0. 0. 0. 0. 0. 0. 0. 0. 0. 0. 0. 0. 0.</_>
    <_>
      0. 0. 0. 0. 0. 0. 6. 1. 0. 0. 0. 0. 0. 0. 0. 0. 0. 0. 0. 0.</_>
    <_>
      0. 0. 1. 0. 0. 0. 7. 0. 0. 0. 0. 0. 0. 0. 0. 0. 0. 0. 0. 0.</_>
    <_>
      1. 0. 0. 0. 0. 0. 10. 0. 0. 0. 0. 0. 0. 0. 0. 0. 0. 0. 0. 0.</_>
    <_>
      0. 0. 0. 0. 0. 0. 7. 0. 0. 0. 0. 0. 0. 0. 0. 0. 0. 0. 0. 0.</_></support_vectors>
  <decision_functions>
    <_>
      <sv_count>227</sv_count>
      <rho>2.9577878185069040e-01</rho>
      <alpha>
        8.1866957089868775e-01 1.2500000000000000e+01
        1.1558599424091142e+01 6.5237948505532539e-01
        1.2500000000000000e+01 1.2500000000000000e+01
        1.2500000000000000e+01 1.2500000000000000e+01
        9.2813167981967870e-02 5.4286663858070430e+00
        6.2940445351721444e+00 2.3961801062987192e-01
        1.2500000000000000e+01 3.2292980972283720e+00
        2.1715089114639472e+00 6.5264125949903828e+00
        9.5674341482613201e-01 1.1918590426738907e+01
        9.6507832459349316e+00 1.2500000000000000e+01
        1.1914238311700787e+00 5.4096592343266159e-01
        1.2500000000000000e+01 1.2500000000000000e+01
        1.2500000000000000e+01 1.2500000000000000e+01
        1.2500000000000000e+01 1.2500000000000000e+01
        9.4021463896279993e+00 1.2500000000000000e+01
        1.2500000000000000e+01 7.9016101894446935e+00
        1.2500000000000000e+01 1.2500000000000000e+01
        7.7857385491315911e+00 8.5702742918156680e+00
        9.1951458542598594e+00 8.7012014273031575e+00
        4.8466328614149070e+00 7.0845018845506909e+00
        1.2500000000000000e+01 1.2500000000000000e+01
        1.2500000000000000e+01 1.0889162327144177e+00
        1.2500000000000000e+01 1.2500000000000000e+01
        1.7534042901958791e+00 1.2500000000000000e+01
        1.2500000000000000e+01 1.2500000000000000e+01
        1.2500000000000000e+01 4.9416565982336635e+00
        1.2500000000000000e+01 2.4920633577694975e+00
        1.2500000000000000e+01 9.3624459524095816e+00
        3.2903457841973989e+00 1.2500000000000000e+01
        1.0130197230457728e+01 1.2500000000000000e+01
        5.9026187839530566e+00 1.2500000000000000e+01
        1.2500000000000000e+01 1.0439084168134123e+01
        4.1827597127585356e+00 1.1787164444368705e+00
        2.0587449640376887e+00 1.2500000000000000e+01
        1.2500000000000000e+01 1.2500000000000000e+01
        1.2500000000000000e+01 1.2500000000000000e+01
        6.5822008291095679e+00 1.2500000000000000e+01
        5.5730600140304158e+00 1.2500000000000000e+01
        6.0796885660083566e+00 1.2500000000000000e+01
        1.2500000000000000e+01 2.0080230304588653e+00
        1.2758213350222747e+00 1.2500000000000000e+01
        1.0546864988395098e+01 1.2500000000000000e+01
        3.0279828320808833e-01 2.9718412907399125e+00
        1.6111982164786947e+00 1.2500000000000000e+01
        1.2500000000000000e+01 4.8972063161350796e+00
        2.4504870562458279e+00 1.2500000000000000e+01
        1.0235237045438799e+01 1.2500000000000000e+01
        1.2500000000000000e+01 1.2500000000000000e+01
        1.2500000000000000e+01 5.4336543564318767e+00
        1.2500000000000000e+01 3.6758659489225520e+00
        1.2500000000000000e+01 2.2908531919853035e+00
        1.6537583277599890e+00 1.2500000000000000e+01
        1.2500000000000000e+01 1.2500000000000000e+01
        1.2500000000000000e+01 1.2500000000000000e+01
        1.2500000000000000e+01 1.2500000000000000e+01
        1.2500000000000000e+01 1.2500000000000000e+01
        4.2683381814352224e+00 6.5859346022374607e+00
        1.1027578707506633e+01 -2.6186426115221981e+00
        -1.1214974033093197e+00 -1.2500000000000000e+01
        -7.2456434972183397e+00 -8.8167493828915600e-01
        -1.2173963937847805e+00 -4.7849788828528084e+00
        -1.2500000000000000e+01 -1.2500000000000000e+01
        -1.2500000000000000e+01 -7.1999851896283662e+00
        -1.2500000000000000e+01 -1.2500000000000000e+01
        -1.2500000000000000e+01 -1.2500000000000000e+01
        -1.1711737721375275e+01 -1.2500000000000000e+01
        -1.2500000000000000e+01 -9.9882764876581884e+00
        -1.2500000000000000e+01 -1.2500000000000000e+01
        -4.7514161200419762e+00 -1.2500000000000000e+01
        -1.2500000000000000e+01 -1.2500000000000000e+01
        -2.2282751167634336e+00 -1.2500000000000000e+01
        -2.2361590877009854e-01 -6.3049242536846455e+00
        -1.2500000000000000e+01 -3.2182706394142033e+00
        -1.2500000000000000e+01 -6.6316228660444105e+00
        -1.2500000000000000e+01 -1.2500000000000000e+01
        -1.2500000000000000e+01 -1.2500000000000000e+01
        -1.2500000000000000e+01 -1.2500000000000000e+01
        -3.4235727950652937e+00 -9.3155149466094169e+00
        -1.2500000000000000e+01 -3.0625012177623834e+00
        -2.5628417247238331e+00 -9.0398970230501146e+00
        -1.2500000000000000e+01 -1.2500000000000000e+01
        -1.4563925445156720e+00 -5.9742255339504013e-01
        -1.2500000000000000e+01 -1.2500000000000000e+01
        -1.2500000000000000e+01 -4.4246171171903681e+00
        -1.2500000000000000e+01 -1.2500000000000000e+01
        -1.2500000000000000e+01 -1.2500000000000000e+01
        -1.2500000000000000e+01 -3.1015986031865563e+00
        -9.0945344570233000e-01 -7.7120190767763930e+00
        -1.2500000000000000e+01 -2.1859926094646962e+00
        -1.2500000000000000e+01 -1.9808351633066872e+00
        -1.2500000000000000e+01 -1.6838145948409420e+00
        -1.2500000000000000e+01 -1.2500000000000000e+01
        -3.9385395758739223e+00 -1.4597844039183805e+00
        -9.1501773853186048e+00 -4.7046316710078377e+00
        -1.2500000000000000e+01 -1.2500000000000000e+01
        -8.4456487533544191e+00 -1.2500000000000000e+01
        -1.2500000000000000e+01 -1.2500000000000000e+01
        -1.2500000000000000e+01 -1.2500000000000000e+01
        -1.2500000000000000e+01 -1.2500000000000000e+01
        -7.9994048975450194e-01 -1.2500000000000000e+01
        -1.2500000000000000e+01 -1.2500000000000000e+01
        -1.2500000000000000e+01 -3.0007142237635596e+00
        -1.2500000000000000e+01 -1.2500000000000000e+01
        -1.2500000000000000e+01 -1.2500000000000000e+01
        -1.2500000000000000e+01 -1.2500000000000000e+01
        -1.2500000000000000e+01 -3.9525914089431624e+00
        -1.2500000000000000e+01 -1.2500000000000000e+01
        -8.2141404147820758e+00 -4.8001989969693215e-01
        -1.2500000000000000e+01 -5.3620279146668448e+00
        -2.4087068830858351e+00 -2.4504870562458279e+00
        -1.2500000000000000e+01 -1.2500000000000000e+01
        -1.2500000000000000e+01 -1.2500000000000000e+01
        -1.2500000000000000e+01 -1.9959304601364851e+00
        -5.6013602933233315e+00</alpha>
      <index>
        475 474 473 472 471 470 469 417 415 497 496 494 493 492 368 381
        380 379 371 370 382 367 366 347 346 345 344 343 342 341 409 414
        413 406 392 391 390 389 388 387 386 385 384 383 562 577 576 565
        564 579 594 592 591 590 588 587 581 580 510 516 515 514 513 512
        511 508 501 500 555 554 553 525 524 523 234 235 237 271 293 331
        308 257 274 273 250 245 246 248 249 340 336 220 332 596 597 598
        599 47 634 632 619 631 630 628 627 626 625 624 623 635 60 42 36
        773 595 170 407 418 419 420 403 397 410 412 83 222 46 45 44 43
        41 40 39 333 310 38 674 48 211 212 213 214 215 309 679 683 238
        268 247 255 254 252 253 774 37 307 306 305 304 275 210 34 675
        678 373 378 377 376 375 374 372 56 55 54 395 394 393 349 348 664
        668 670 671 673 350 558 616 539 538 537 583 582 94 95 96 97 98
        99 100 570 569 568 567 566 477 478 490 491 503 504 505 506 68
        509 622 621 468 467 65 67 522 521 520 518 517 620 526</index></_>
    <_>
      <sv_count>103</sv_count>
      <rho>1.3935823214761420e+00</rho>
      <alpha>
        1.0283288885941884e+01 2.3687291918151271e-01
        1.7217590541699017e+00 6.7612995136645786e+00
        1.8693734189308699e+00 2.3518482307999689e+00
        4.7251585493204527e+00 6.5348263301820300e+00
        3.3158584701290600e-01 4.5349778125239221e-01
        1.2500000000000000e+01 8.6052483332939005e+00
        2.4701357225811479e-01 1.0936207160420530e+01
        1.2500000000000000e+01 2.5666320323684588e+00
        2.3087936368129292e+00 3.6322390178708002e+00
        1.2500000000000000e+01 6.6458707736854388e+00
        1.2500000000000000e+01 7.5554184703854474e+00
        1.2500000000000000e+01 2.3902656596764498e+00
        7.2831390268266007e+00 1.2500000000000000e+01
        4.4548599273243212e+00 1.0723575893061316e+01
        7.0266849814479189e+00 3.1766871378781136e+00
        1.2500000000000000e+01 1.0415112576529276e+01
        1.2500000000000000e+01 2.6655804433842445e-01
        6.1414191501156949e+00 4.2601576935279066e+00
        1.2500000000000000e+01 1.2500000000000000e+01
        1.1812146175389350e+01 8.4718632294290295e+00
        4.1907033126604203e+00 1.3148035862550937e+00
        1.0040064276189788e+00 1.1754286752867960e+00
        1.4018913224862628e+00 6.3487566494529322e+00
        3.6347311067381254e+00 1.2500000000000000e+01
        1.2500000000000000e+01 -3.6292592850808253e-01
        -5.9255792002242347e-01 -1.9313917813831234e+00
        -9.1489148429578755e+00 -3.0991731779193826e-01
        -9.8398527364632349e-01 -2.4907924173475835e+00
        -7.0404872036255606e+00 -4.2516198945243566e+00
        -6.9081135218719432e+00 -6.4473547815183023e+00
        -1.2500000000000000e+01 -6.3975156501200265e+00
        -5.6761189567231236e+00 -1.2500000000000000e+01
        -9.9433118136295828e+00 -9.6114841769350612e+00
        -8.4865507314934663e-01 -1.1822025631602015e-01
        -3.4992710832844831e-01 -3.7999911124205883e+00
        -7.1108417949114591e+00 -1.2500000000000000e+01
        -1.2500000000000000e+01 -1.0675938961868871e+01
        -3.2109404463967017e+00 -3.6440859110065906e+00
        -2.3748172991247509e+00 -2.3174772686639069e+00
        -1.2500000000000000e+01 -3.0911743780984313e+00
        -1.1477427962897835e+01 -8.2477252215649677e-01
        -5.1470046716182374e+00 -1.0216775929438866e+01
        -1.2500000000000000e+01 -6.6369117627296044e+00
        -8.2647854767309947e-01 -6.5047590774300019e+00
        -5.9072906551953475e+00 -5.0060721187670199e+00
        -1.3547725469287728e+00 -9.8402462499018828e+00
        -1.2500000000000000e+01 -8.9268353949072523e+00
        -4.1849870550882855e+00 -1.2500000000000000e+01
        -1.2500000000000000e+01 -5.3538780674387771e+00
        -7.7450827738352090e-01 -4.0822207118276879e+00
        -8.8215984074934706e-01 -2.5259758405385222e+00
        -1.0648085780034149e+01</alpha>
      <index>
        475 472 470 416 498 495 493 492 476 381 379 369 367 347 346 345
        341 409 406 391 390 564 579 593 589 580 516 514 500 499 235 237
        293 273 250 244 248 249 220 596 600 629 631 628 625 623 777 60
        42 425 301 295 294 456 292 455 454 302 464 535 552 770 776 775
        772 768 753 258 263 713 398 636 661 557 351 400 405 402 357 507
        319 320 479 480 641 640 648 61 59 63 62 239 185 184 23 35 33 32
        0 29 28 243 144</index></_>
    <_>
      <sv_count>108</sv_count>
      <rho>9.6560524432954498e-01</rho>
      <alpha>
        1.1446855133599795e+01 5.7582782266799857e+00
        1.0659389224313498e+00 4.2538764002826221e+00
        3.2300218545624562e+00 1.0481042257786781e+00
        1.2500000000000000e+01 1.4492595884054371e+00
        6.6128369510888341e+00 1.2500000000000000e+01
        3.7735402595839500e+00 4.9299807837400307e+00
        3.0792847031755626e+00 2.4622958750431905e+00
        7.9818483053317681e+00 5.4835360408783949e+00
        1.2500000000000000e+01 3.4161441751433190e+00
        1.2500000000000000e+01 1.2500000000000000e+01
        1.2500000000000000e+01 1.2495606107713346e+01
        3.2704392233259023e+00 4.1674483648464129e+00
        1.2500000000000000e+01 8.2561822058075087e+00
        4.3847114093665862e+00 1.2500000000000000e+01
        6.2312029162556737e-02 5.7799005481254682e+00
        2.1047887344918381e+00 7.6664806219352881e+00
        5.1042260117345979e+00 2.1573288702332039e+00
        6.6102745711223250e+00 5.8204865585859880e+00
        1.2500000000000000e+01 7.1805957492899930e+00
        1.3798245114849721e+00 1.3301812798534851e+00
        5.1827393872585326e+00 5.2703202979081931e-01
        2.7060935457852948e+00 4.0829190773873227e+00
        1.2500000000000000e+01 5.4538458534092022e+00
        -6.3629792426822060e+00 -4.0228004850711727e+00
        -1.2449226907814026e+00 -1.2500000000000000e+01
        -1.2500000000000000e+01 -5.8585513914639256e+00
        -1.1902737209642616e+01 -1.2500000000000000e+01
        -3.0452918010108534e+00 -1.6861656474976079e+00
        -4.3110671683626576e+00 -4.1560730088933600e+00
        -7.0352931286275011e-01 -5.6001220667946272e-01
        -3.5911995522942850e+00 -3.2723588376251334e+00
        -4.1346974606126521e+00 -1.4345026190208656e+00
        -2.6625177357134904e+00 -1.0223546874081187e+01
        -2.3740920947784621e+00 -1.2500000000000000e+01
        -8.0747822350276746e+00 -1.2500000000000000e+01
        -7.7718611186526116e+00 -4.9171130383894548e+00
        -1.6292348594035757e+00 -1.1966434731376339e+00
        -3.9497364959176466e+00 -1.2500000000000000e+01
        -1.1815645734775628e+00 -1.2500000000000000e+01
        -3.7823070299851951e+00 -2.0658217625677311e-01
        -3.0337849623793633e-01 -7.3857876803752109e-01
        -2.1385323795228999e+00 -5.9249094956869293e+00
        -1.6060112673227691e+00 -2.6829867377993168e+00
        -9.4663937715687207e-02 -1.2500000000000000e+01
        -1.2500000000000000e+01 -1.4357887226708435e+00
        -3.7453195333918422e-02 -8.0271979942874627e-01
        -1.8760244822750685e+00 -2.5678131718620645e-01
        -2.7619718167866898e+00 -7.3291396948643150e-01
        -4.3116776654334360e-01 -1.6861322395125307e+00
        -1.1492387207826456e+00 -7.5731173680058026e+00
        -1.8994012478894866e+00 -2.4895513260029274e+00
        -1.2500000000000000e+01 -5.0711170592686985e+00
        -1.0491079268100645e+00 -1.8853451909510879e+00
        -3.3145456585624133e-01 -1.2500000000000000e+01</alpha>
      <index>
        475 474 417 493 492 476 379 347 346 341 409 406 392 391 390 388
        562 577 565 564 579 580 516 499 555 554 236 293 330 329 328 273
        233 250 244 248 220 596 629 633 619 631 625 623 60 773 606 112
        608 81 82 90 574 603 602 79 80 130 129 531 128 483 482 481 147
        463 461 459 133 551 550 549 542 125 733 721 720 732 730 728 726
        724 755 767 766 765 30 52 53 655 642 704 706 688 26 323 321 300
        299 281 279 325 327 338 339 192 324 242</index></_>
    <_>
      <sv_count>82</sv_count>
      <rho>5.4386102222296029e-01</rho>
      <alpha>
        1.2600664929917677e-01 3.1885651731123135e+00
        1.9058263282564107e+00 2.3670876214713861e+00
        1.2500000000000000e+01 3.7133185043255432e+00
        3.0520007718119593e+00 8.0986913481645040e+00
        1.2500000000000000e+01 1.5884843607926695e+00
        9.9782218966121561e-01 7.9024710398250375e-01
        7.8086775747561008e+00 6.6446053346879697e-01
        1.2500000000000000e+01 1.2450611594984378e+00
        1.2500000000000000e+01 2.4031315513410196e+00
        1.9940952491331165e+00 1.2956938629528318e+00
        1.4658357902722094e+00 1.5630135191376688e+00
        1.6102453541707296e-01 2.7631184279931023e+00
        9.7693935221125472e-01 8.7947973508637443e+00
        6.3099533669103014e-01 2.9985972318155087e+00
        1.2500000000000000e+01 1.9650492415151539e+00
        3.5751824395120293e+00 6.5604210855644025e+00
        1.2500000000000000e+01 1.0689854571759330e-01
        8.0578714423846753e-01 1.2103222232116185e+01
        -6.2891805519560462e-01 -1.6407762202755420e+00
        -4.0186153103824571e+00 -7.5037661273557141e+00
        -5.2359594165321743e+00 -3.8199468037801121e-01
        -7.8413991906505949e+00 -7.4804611632545170e-01
        -2.8644813748018345e+00 -1.7275952813390758e+00
        -1.6429429174841759e+00 -1.2500000000000000e+01
        -2.6084908091320238e+00 -9.1942188535348668e-01
        -4.8360114812480448e-01 -1.4285556860397616e-01
        -1.5493939800771087e-01 -1.2346197050359209e+00
        -4.1002621211410863e+00 -3.3060915511922140e+00
        -3.7882005951349285e-01 -4.0934421118867972e+00
        -5.8660379578757571e-01 -1.1297103036567078e+00
        -1.0557831685116419e+00 -7.8874210217699392e-01
        -1.3644544597562354e+00 -9.9378679070908271e-01
        -7.0514808516345662e+00 -1.7337972949591667e+00
        -1.1243345970814893e+01 -6.0616659326369158e+00
        -1.5049484366181594e+00 -2.0283465493213675e+00
        -4.3270784215395597e-02 -1.5524670134032967e-01
        -8.8659685602597915e-01 -1.2500000000000000e+01
        -7.1294918564807586e-01 -2.2443663070821653e+00
        -1.2500000000000000e+01 -3.9960361962128839e+00
        -7.6064963700754884e-01 -2.2112318422655868e+00
        -1.2500000000000000e+01 -1.2500000000000000e+01</alpha>
      <index>
        475 474 417 493 492 476 347 346 341 409 406 391 390 385 562 577
        565 564 589 578 516 499 525 523 236 293 257 273 233 250 244 248
        220 633 623 60 691 696 240 262 334 337 69 51 241 227 228 229 230
        231 19 277 285 284 276 291 289 232 699 701 269 736 265 221 529
        132 528 160 546 548 146 152 151 137 138 487 143 141 70 119 575
        356</index></_>
    <_>
      <sv_count>165</sv_count>
      <rho>6.4284554240404645e-01</rho>
      <alpha>
        1.2500000000000000e+01 1.2500000000000000e+01
        5.2470797822003288e+00 2.2416299146430601e+00
        1.2500000000000000e+01 6.4073542139268955e+00
        6.7901930584736840e+00 6.5273551858635939e+00
        5.7675563425510150e+00 1.2500000000000000e+01
        2.0998810307717286e+00 7.3270868556709179e-01
        1.2500000000000000e+01 1.2500000000000000e+01
        5.4318029724331307e+00 2.5005950138496319e-01
        1.2500000000000000e+01 8.7760087008339180e+00
        3.0776389540964533e+00 1.7218029060092173e+00
        9.1127929233074201e-01 2.4468939695079865e+00
        4.8903478799200890e+00 5.2999130752953316e-01
        2.5223898923324950e+00 2.0976270489217033e+00
        2.8256982892779687e+00 7.8935719146706793e+00
        4.8710948643985219e+00 3.3782320245873070e+00
        1.2500000000000000e+01 1.2500000000000000e+01
        1.1396088838179820e+01 3.3559106737903459e+00
        2.6161170625275703e+00 2.3683046304685966e+00
        3.7763026224650503e-01 3.9654383619750675e+00
        1.2500000000000000e+01 1.1147389402502306e+00
        7.0773400263127586e+00 2.3965173637225416e+00
        1.2500000000000000e+01 5.8177016140354987e-01
        8.0126390606021829e+00 2.0523015219355352e+00
        1.2500000000000000e+01 4.7195045384386569e+00
        1.2500000000000000e+01 1.9615203958830523e+00
        1.8864227752807192e+00 3.3935824380249398e+00
        4.2086791941696194e-01 6.6087583587232075e+00
        2.6629140198809648e-01 7.2542102852745621e-02
        1.2500000000000000e+01 3.2067964050132858e+00
        1.1505368612758573e+01 1.1155603867916186e+01
        1.0554356036247869e+01 1.2500000000000000e+01
        1.2500000000000000e+01 1.2500000000000000e+01
        1.2500000000000000e+01 1.2500000000000000e+01
        8.1571699963323478e+00 1.5245289296405151e-01
        1.2500000000000000e+01 3.7797212913895808e+00
        5.8989462814070324e+00 1.1212823396357989e+00
        1.2500000000000000e+01 1.1975991794180267e+01
        2.2150250599458268e+00 3.0022988680558438e+00
        4.6533531242307795e+00 1.2500000000000000e+01
        1.2500000000000000e+01 2.0066395088314914e+00
        7.0638118407025434e+00 1.2500000000000000e+01
        -6.0838373177779204e-01 -6.2296816910749664e+00
        -7.3623393649128657e+00 -2.4141230754260210e+00
        -7.2334006378264382e-01 -3.1972672630521175e+00
        -2.1317383379280244e-01 -3.5512363958879960e+00
        -9.0935010257741027e+00 -2.3987048474407127e+00
        -1.2500000000000000e+01 -1.2500000000000000e+01
        -5.6744247634068463e+00 -2.9624297037912783e+00
        -2.5124665589328194e+00 -6.9353585299777469e+00
        -4.4410709047627632e+00 -7.7220465345131617e-01
        -1.2500000000000000e+01 -5.9473132048309481e+00
        -5.3480096778450548e-01 -2.6989462629353245e-01
        -4.3087512109101631e+00 -1.9851117330090429e+00
        -2.7547537408064082e+00 -4.9793978715618081e+00
        -1.2500000000000000e+01 -1.2500000000000000e+01
        -7.1294837712987089e+00 -3.3315024944892597e+00
        -2.9056267275209002e+00 -2.1954311683201677e+00
        -2.3775144882005770e+00 -6.0837245010555892e+00
        -1.2500000000000000e+01 -6.2482946390366800e+00
        -6.5781238080050679e+00 -9.0474058055370978e+00
        -2.5334466686553414e+00 -7.4254563110866609e+00
        -7.6757357147669369e-01 -1.8695474599564157e+00
        -8.8520124323371121e+00 -5.2326387115435766e+00
        -1.2500000000000000e+01 -3.5004472002619686e+00
        -1.2500000000000000e+01 -1.1666687219019806e+01
        -6.7012224125180853e-01 -1.0702495107679633e+01
        -9.8356110202461444e-01 -7.0508865430678718e+00
        -1.2500000000000000e+01 -1.2500000000000000e+01
        -4.3611282535777673e-01 -3.7518950104701041e+00
        -4.3349995884376318e+00 -1.2500000000000000e+01
        -1.2500000000000000e+01 -5.9163071698636198e+00
        -2.0490932616754352e+00 -4.8053274804865200e+00
        -9.9052362883134393e+00 -1.2500000000000000e+01
        -3.8697891606079535e+00 -1.2500000000000000e+01
        -1.2500000000000000e+01 -1.2500000000000000e+01
        -1.2500000000000000e+01 -7.0481871421291604e+00
        -1.2500000000000000e+01 -1.2500000000000000e+01
        -6.7862996876396036e+00 -4.0395525566561092e+00
        -1.2500000000000000e+01 -1.2500000000000000e+01
        -6.8067756507206578e+00 -9.5778227745436384e-01
        -1.2500000000000000e+01 -4.5349490735355680e+00
        -4.2051156243749244e+00 -2.1687279278658798e+00
        -4.8934400260111550e+00</alpha>
      <index>
        176 178 177 175 407 421 403 396 186 408 411 171 172 173 222 333
        223 310 211 217 680 681 682 683 238 268 247 774 37 304 272 34
        676 677 373 375 57 394 666 348 658 660 665 668 672 673 195 194
        558 617 541 540 538 536 84 85 584 583 97 99 585 570 569 568 567
        566 87 422 586 478 490 491 646 502 509 621 468 460 467 66 650
        519 684 425 685 316 297 456 292 455 303 527 464 465 533 534 535
        552 770 776 775 772 771 769 768 753 424 258 259 260 712 398 659
        399 663 667 636 557 351 400 405 404 559 657 560 361 357 507 319
        320 479 651 480 318 641 640 638 637 489 601 563 167 61 59 63 185
        193 22 21 181 182 183 184 23 188 174 35 33 32 29 24 88 144 1 101</index></_>
    <_>
      <sv_count>146</sv_count>
      <rho>8.8719141787086364e-01</rho>
      <alpha>
        1.7384516293030972e+00 5.1751944819554110e+00
        1.2375049745137745e+00 1.0934842864676804e-01
        1.5828998823124902e+00 1.0837192974641754e+00
        9.0281532822544763e-01 7.9541361654513398e-01
        3.0526755949180711e+00 7.1435178655968450e+00
        1.2500000000000000e+01 7.0204073836050682e+00
        9.1842474513466033e-01 4.4127328853678778e+00
        3.1549586045455840e+00 1.3442386389318279e+00
        1.6262164484967228e+00 4.8001675296301449e-01
        3.1344130596121209e+00 1.2500000000000000e+01
        7.6520683688705358e+00 1.8768434423312665e+00
        4.7768209068876066e+00 2.1814187119868849e+00
        2.0020503359916599e+00 2.8301860261096863e+00
        4.3798705877833664e+00 9.3616066681704488e+00
        3.2515291611636172e+00 8.9017462213826395e+00
        2.3124798649083602e+00 7.5620382674750319e-01
        4.4439408765953980e-01 7.8885632557185934e+00
        3.5194968853262587e+00 9.7425447015265476e-01
        7.2400086441275011e+00 3.8164837318915916e+00
        1.0913533676325581e+01 1.2500000000000000e+01
        1.2591643607506557e+00 2.5875415246268205e+00
        1.5788683251127318e+00 5.5423525322565759e+00
        5.5469800671474498e+00 5.2509005903824890e-01
        7.7228877381730037e+00 1.2684517604662655e+00
        4.0993689442568915e+00 1.9863364470087805e+00
        2.7674105154531965e+00 2.8171051676530814e+00
        1.2500000000000000e+01 1.2500000000000000e+01
        1.2500000000000000e+01 1.0998360783052119e+01
        1.2473819757840248e+01 3.1212222270544396e+00
        1.5070126780903765e+00 1.5684249319705985e+00
        5.4608852385786184e+00 5.1219641525122999e+00
        8.1573980378847928e+00 1.2500000000000000e+01
        1.2013085802502304e+00 4.5105403400537218e+00
        1.2500000000000000e+01 2.6359406369276761e+00
        3.5632785275269435e-01 9.1416064828129802e+00
        1.3701252321696893e+00 8.6674185268981656e+00
        4.3327407443597306e+00 -1.2500000000000000e+01
        -6.7409615600572188e+00 -5.3495883671942401e+00
        -1.2500000000000000e+01 -1.2500000000000000e+01
        -1.1237002640921119e+01 -6.5180244122502788e+00
        -1.2288442900810413e+01 -1.2500000000000000e+01
        -9.9329410065905321e+00 -2.5918578701637007e+00
        -2.7462511832821206e+00 -1.1555841188378109e+01
        -5.1124163521363652e-01 -2.7180211977940196e+00
        -4.2833230977352184e+00 -2.1025120284355383e+00
        -5.7083343241116653e+00 -7.1890809505177975e+00
        -1.0734237302661511e+00 -6.8382723578808671e+00
        -9.2906466697886536e+00 -9.6840380469729652e+00
        -2.0783137018931810e+00 -1.2500000000000000e+01
        -4.5769836593990822e+00 -4.5619516919732952e+00
        -1.4324200422910256e+00 -9.7958755407314211e+00
        -9.3837997302292520e-01 -1.3194400292406132e+00
        -1.8166310214229233e+00 -1.3624426431207231e+00
        -1.6488492238006232e+00 -1.2310312014465543e+00
        -2.9348098961995590e+00 -2.5586284021273458e+00
        -3.8451996267976063e-01 -5.1178739898975341e+00
        -3.8114307163052459e+00 -2.0767474885355379e+00
        -4.8270512012565892e-01 -6.0984892790447076e-01
        -1.8219576336144028e+00 -3.8244527017352448e-01
        -3.7213240425802714e+00 -3.6178760932463474e+00
        -1.2418345539099722e+01 -1.2500000000000000e+01
        -1.1679733466688758e+00 -4.7863277147155986e-01
        -7.8777100327281402e-01 -2.5450494372897703e+00
        -2.2304890026736190e+00 -2.9630804345749966e+00
        -1.0972807945013695e+01 -4.2591657628644306e+00
        -1.1391243167763294e+00 -6.4515652960635190e+00
        -3.5773123323496607e+00 -2.1103487006956114e+00
        -6.7700956122348241e+00 -1.0083163186220345e+00
        -2.0389710733802184e+00 -5.8430586925099020e+00
        -4.9047270964306229e+00 -1.0145763454363299e+00
        -1.2500000000000000e+01 -2.4115419267815268e+00
        -9.0482372451970328e-02 -3.2222242270358841e+00
        -4.8347837552497266e+00 -9.3642738778156454e-01</alpha>
      <index>
        407 421 403 397 396 410 408 411 654 171 172 173 412 222 223 312
        311 310 216 217 218 238 268 247 774 37 307 304 275 272 34 57 395
        394 666 660 665 671 195 558 615 616 617 618 541 540 539 123 85
        86 584 97 570 569 568 567 87 586 477 478 490 491 646 502 68 621
        460 466 66 650 64 519 526 606 112 608 81 82 90 91 574 603 602
        605 79 130 532 531 530 483 482 147 149 461 459 133 488 551 549
        542 124 733 721 720 719 732 730 728 725 724 764 767 766 765 762
        745 5 6 644 31 52 655 643 78 706 17 688 25 26 225 226 298 166
        426 282 279 187 327 338 326 192 352 427 428 447 448</index></_>
    <_>
      <sv_count>93</sv_count>
      <rho>1.0840935189295801e-01</rho>
      <alpha>
        1.3680214277642508e+00 3.2798672379175019e-02
        1.5953607182524410e+00 9.9192440918239033e-02
        9.6653443948690199e-01 4.3438518838057281e+00
        4.5412564660150228e+00 5.2944611577085343e+00
        2.0224837339785900e-02 1.2500000000000000e+01
        1.2500000000000000e+01 1.7410402809863592e+00
        8.0897166422606637e-01 1.1717891052458216e+00
        4.3250612843920200e+00 2.0539485683814216e+00
        1.9300290784939660e+00 3.4416920132995439e+00
        1.9897183079047744e+00 4.1381539856567233e+00
        1.1187305398777467e+00 6.3453355275606582e-01
        4.5655351592846721e-01 1.5887277844195294e-01
        1.8166218658321798e+00 1.0354086008101473e+00
        5.5181557074185383e-01 5.9363336619769191e-01
        2.6846510120220496e-01 1.2500000000000000e+01
        1.9318054685046243e-02 2.9036972394675677e+00
        3.9832940022487513e+00 3.0640628893551090e+00
        7.6924959019300791e+00 2.9637354594994907e+00
        1.2648829468940808e+00 1.2500000000000000e+01
        1.2500000000000000e+01 4.8548095713859212e+00
        1.7089365975094398e-01 9.7385868784829177e-01
        3.4268344808468254e+00 1.5533264441076389e+00
        2.2973635530556722e+00 4.1484034046743856e+00
        8.5190410185360466e-01 6.9248587425683450e-01
        8.0286694299508354e-01 3.7204406134718844e+00
        2.8654808468248549e-01 5.8258830136593376e-01
        -3.1873394469282446e-01 -1.8453278589144118e+00
        -1.2500000000000000e+01 -2.9233307232738026e+00
        -4.4007052099186433e-01 -2.3672399027372957e+00
        -6.6244264370048960e+00 -1.9075440095839269e+00
        -4.6389911295007771e+00 -5.9402635704420970e-01
        -6.3843851993930956e-01 -1.0928726923839365e+00
        -8.2757728122094887e-01 -6.0082702494269102e-01
        -2.0065311781874118e+00 -2.8329429228653731e+00
        -1.5163554365451553e+00 -9.3384402773692869e+00
        -8.2860784925136421e+00 -1.2433129584739466e+00
        -3.5804029827445827e-01 -5.4866341358791215e-01
        -3.7805286266834481e+00 -9.7412653612680766e-01
        -3.9618187482556149e+00 -1.0455901321313441e+00
        -1.4666061156171268e+00 -3.5804978931042712e+00
        -1.1609832404367817e+00 -2.2846275254099888e-01
        -2.1358506920724656e+00 -8.9021273200468993e+00
        -1.2500000000000000e+01 -1.2500000000000000e+01
        -4.9345390068745996e+00 -3.8508710614647566e+00
        -2.9740358887409613e-01 -2.4773957751697493e+00
        -3.0039785689736749e+00 -1.2500000000000000e+01
        -1.2500000000000000e+01</alpha>
      <index>
        407 420 421 397 396 83 222 223 310 217 218 219 680 681 238 268
        252 774 37 304 275 676 677 373 394 666 668 669 671 558 617 541
        540 539 123 86 582 570 569 568 422 477 478 490 491 621 467 66
        522 521 519 518 689 696 262 334 209 241 229 277 284 276 287 291
        288 699 736 221 132 528 160 161 544 546 548 150 146 135 137 136
        444 485 486 487 143 141 140 70 118 179 119 575 356</index></_>
    <_>
      <sv_count>200</sv_count>
      <rho>5.5589024195718162e-01</rho>
      <alpha>
        3.4342200914347204e-01 9.8644273786399705e-01
        1.1874356690749950e+00 4.4598140321564470e+00
        3.1501718789292323e+00 5.2171390732042049e+00
        8.5105265893902953e+00 5.3996900100884684e+00
        1.5421225633826441e+00 8.9469717903732384e+00
        2.1310247281696206e+00 5.5071406447707127e-01
        1.1569601297022931e+00 7.4630057112519677e-01
        1.2500000000000000e+01 1.1539484635259608e+01
        3.5770829343619805e+00 5.7591917105173707e+00
        5.7826412020883202e+00 6.6390745347291338e+00
        1.2592703960781186e+00 8.4044136692716993e+00
        1.2500000000000000e+01 3.7014006893013369e+00
        1.2500000000000000e+01 1.2500000000000000e+01
        2.4653711385333308e+00 1.1753556192477221e+00
        2.6397281946710729e+00 5.4298921012900498e+00
        8.3867589089172583e+00 4.9648637056257545e+00
        6.2990784554680435e-01 4.0034778651157732e-01
        4.0486666498361616e+00 1.9949618590916813e+00
        1.0488505398702921e+00 1.2500000000000000e+01
        1.8125042356714642e+00 8.1047283390955602e+00
        6.2016834892948038e+00 1.3959348491481101e+00
        1.2500000000000000e+01 1.2500000000000000e+01
        1.2500000000000000e+01 6.8324641095748359e-02
        1.2500000000000000e+01 1.2500000000000000e+01
        1.2500000000000000e+01 1.2500000000000000e+01
        1.2500000000000000e+01 1.2500000000000000e+01
        4.1319300573667022e+00 2.6285866543946490e+00
        5.0100030346420557e+00 1.6081413483525557e+00
        2.7257712217081851e+00 4.2391805581790365e+00
        1.2223132737867211e+00 3.4049506655957668e-01
        4.8817609030362314e+00 1.2500000000000000e+01
        5.5978517300092800e-01 2.0112254755617514e+00
        1.2500000000000000e+01 5.7659642827302067e+00
        1.2500000000000000e+01 5.2182353879345822e+00
        6.8403367829625594e+00 2.0093842194565052e+00
        1.2500000000000000e+01 2.0062195283526307e-01
        2.7772767572296173e+00 2.1982415733681857e+00
        2.0306384900462713e+00 1.2500000000000000e+01
        5.8818166516296289e-01 1.1062948850507277e+01
        1.2500000000000000e+01 1.5644847406441966e+00
        8.8964014022067079e+00 8.9810230354519831e+00
        1.2500000000000000e+01 5.1931055719207917e+00
        1.0979524385726749e+00 3.7393406363821677e+00
        2.4028291741242001e+00 1.9100096655798207e+00
        1.2500000000000000e+01 9.3743766623439999e+00
        1.2417969389778653e+01 1.2500000000000000e+01
        5.1878074638957310e+00 1.4573606642175740e+00
        5.7294692445422877e+00 4.3769503479038070e+00
        1.2500000000000000e+01 9.4504701917551803e-01
        -1.2500000000000000e+01 -7.1728448745998881e+00
        -7.7159942019795813e-02 -1.2500000000000000e+01
        -4.2092502876531110e+00 -1.2500000000000000e+01
        -1.2500000000000000e+01 -1.2500000000000000e+01
        -1.7797500758036289e+00 -2.0623644162905475e+00
        -1.2500000000000000e+01 -1.2500000000000000e+01
        -1.2500000000000000e+01 -1.2500000000000000e+01
        -1.2500000000000000e+01 -1.2500000000000000e+01
        -8.2360378175342639e+00 -1.2500000000000000e+01
        -1.2500000000000000e+01 -1.2500000000000000e+01
        -1.2500000000000000e+01 -1.9960005212472351e+00
        -1.9885707530201975e+00 -1.2500000000000000e+01
        -2.3814141235821835e+00 -7.3301497841261263e+00
        -4.0720602531809220e+00 -1.5815744230837128e+00
        -3.2626024599317116e-01 -5.8079082685651526e+00
        -4.9779770907914161e-01 -1.2500000000000000e+01
        -5.5605720541984782e+00 -6.8009214339467650e-01
        -4.9268083255211179e+00 -6.2041336399467251e-01
        -4.0632085258061823e-01 -1.8070059209354132e+00
        -1.1876845211131919e+00 -1.0673311540179501e+01
        -2.3123202154148608e+00 -6.3524461708658486e-01
        -3.4142888484447043e+00 -1.7843162550672326e-01
        -2.9538984223774420e+00 -3.3865368238485125e+00
        -5.8280943195234813e-01 -1.3368764970458591e+00
        -5.7592668847500770e+00 -1.0795093105632674e+01
        -1.3357987096900925e+00 -2.8073980687803255e+00
        -1.3411406702876805e-01 -3.5785766083910819e+00
        -7.2062657191291120e+00 -3.6311588428696333e+00
        -2.3286296907877078e+00 -3.2943449933842139e-01
        -3.2946494012251750e+00 -6.6523804807463174e+00
        -1.6469214008897668e+00 -5.3264760027061548e+00
        -3.5801321939323492e+00 -1.7679292100814907e+00
        -9.2524439942216503e+00 -1.2500000000000000e+01
        -1.2500000000000000e+01 -1.2500000000000000e+01
        -6.9508932657497642e+00 -8.1146206132901728e+00
        -2.0628244139788202e-01 -1.3165026336363252e+00
        -1.2500000000000000e+01 -3.3666362107258232e+00
        -7.8984952210771349e+00 -5.2638024699197414e+00
        -1.2500000000000000e+01 -1.2500000000000000e+01
        -9.0016302973747973e+00 -1.2362652853865310e+00
        -6.2527766868994750e-01 -4.8766806658551696e+00
        -2.7500177195325186e+00 -3.8444727557740510e-01
        -9.0143918620242758e+00 -6.4677262765638321e-01
        -1.2500000000000000e+01 -6.4518186483010798e-01
        -3.4772255816546771e-01 -8.4260928410785905e+00
        -5.8109529353932858e+00 -1.5109500743797200e+00
        -1.2581797943724486e+00 -1.1413213477483288e+00
        -1.2500000000000000e+01 -7.2546722345263586e+00
        -2.6636193626675069e+00 -8.2454906195514432e+00
        -1.0048325303005322e+01 -2.1227186074951995e-01
        -4.0472438956341766e-01 -1.3536766841981138e+00</alpha>
      <index>
        652 316 687 692 708 709 710 296 295 294 303 464 534 535 552 256
        750 749 748 747 776 775 423 653 768 753 752 424 711 714 713 398
        659 399 663 667 636 365 662 400 556 402 364 363 362 560 361 360
        359 358 357 319 656 479 315 651 313 314 317 647 641 640 639 637
        611 489 601 609 610 612 613 614 649 59 168 58 185 193 22 21 181
        23 113 189 14 32 0 122 29 28 89 144 2 4 104 103 102 101 606 114
        457 112 111 105 81 82 90 91 106 107 108 109 110 574 573 604 603
        602 605 530 481 461 459 458 133 488 121 115 116 551 549 733 743
        742 741 740 739 718 723 11 12 727 731 730 729 728 758 760 759
        756 755 764 3 763 762 761 746 745 744 13 6 7 644 31 52 53 655
        645 72 73 27 704 705 707 688 25 26 703 702 401 323 322 166 282
        281 169 325 327 338 326 197 196 192 191 190 242 450 445 447 448</index></_>
    <_>
      <sv_count>104</sv_count>
      <rho>-1.3318396936533791e-01</rho>
      <alpha>
        1.5502712539720720e+00 2.1814616681003809e+00
        7.7166430148827209e-02 1.5020216475684391e+00
        2.9166596215641007e+00 2.6443170402803999e+00
        1.7274133818891015e+00 2.6967972479867806e+00
        3.5003496378761891e+00 5.1343606430244257e+00
        4.3324296177448511e+00 1.7155324651054364e+00
        9.9054398594076143e-01 7.5928084965386708e-02
        2.0483198900930484e+00 2.4190802354520833e+00
        1.1678332965814251e+00 1.8761554004200780e+00
        1.3342687339506278e+00 4.0643493171685680e-01
        2.1953842390325353e+00 1.7225144954701694e+00
        3.0340591473636040e+00 5.7317609899928279e-01
        1.2500000000000000e+01 3.2101237353796455e+00
        5.1743049628123616e+00 6.7025711257688012e-02
        6.1480780315105710e-01 5.3091120138205161e+00
        6.4049516349558044e-01 1.4374141251705239e+00
        3.1478802962978762e+00 1.7509738186182728e+00
        1.2500000000000000e+01 6.1821060001666464e+00
        7.4465532518368360e-01 8.5644429656410348e-01
        4.6316955672701052e+00 9.7499791082070811e-02
        1.2515161958601766e+00 7.7806796190484073e-01
        3.2245578769989471e+00 1.3997396722475435e+00
        1.2500000000000000e+01 3.5633599561874068e+00
        1.9296779746055612e+00 1.5997433124905087e+00
        1.0981889520079695e+00 4.0824142327131963e-01
        8.5237459544664311e+00 1.0725437673035139e+00
        1.2500000000000000e+01 1.4052987073124141e+00
        1.0036933729416040e+00 5.8928752927395724e-02
        -3.9477044922830684e+00 -7.9075429101290071e+00
        -1.2500000000000000e+01 -2.2585512031366792e+00
        -2.8994718533192190e+00 -7.3634806120143326e+00
        -1.5610407557136448e+00 -4.0615630358418731e-01
